2708 100
74700 0.124039 -0.487907 0.907157 0.406762 0.825119 -0.331476 -0.205608 -0.29144 -0.303436 0.651023 0.0506474 0.282957 0.82323 -0.0682739 0.0882082 0.118376 -0.0481208 -0.00825539 -0.85764 0.366889 -0.579579 0.19241 -0.233006 0.262906 0.317373 0.11444 -0.477846 -0.279077 -0.752127 0.291689 0.637123 0.357868 -0.391012 -0.162031 -0.290994 -0.382188 -0.41228 -0.138159 -0.107125 0.0280593 -0.425202 -0.0887488 0.149636 -0.536881 -0.0722857 -0.360436 0.611926 0.305116 0.0527219 -0.0721445 -0.299788 0.336269 0.482218 0.0516992 0.543039 0.0368894 -0.556671 -0.226759 -0.337561 -0.308676 0.225371 0.2514 0.451305 0.858876 -0.206354 -0.107217 0.323905 -0.436087 0.401596 -0.556342 0.368375 0.524834 -0.495213 -0.00262049 0.420347 0.110981 0.000204684 -0.288329 0.157068 -0.423836 0.00619117 -0.303126 0.364115 0.229173 -0.195667 0.346288 0.103508 -0.423198 0.671368 0.774606 -0.24037 -0.306051 0.0197839 -0.707601 0.994713 -0.0328432 -0.133243 0.576388 -0.59936 -0.269765
684986 0.0642061 -0.386973 0.4193 -0.026523 -0.113996 -1.04345 -0.150923 -0.486398 0.154972 0.486576 0.479308 0.0121245 0.20589 -0.626019 -0.0159099 0.607946 -0.288135 0.17653 -0.0761049 -0.216929 -0.184065 -0.25747 0.215554 0.0376914 0.667253 0.510819 -0.680247 -0.448875 -0.560234 0.54643 0.327687 -0.111722 -0.455911 0.141587 -0.107922 -0.326141 -0.538309 -0.310997 0.568292 1.12327 -0.339437 -0.796259 -0.253422 0.322719 0.40034 0.517971 0.105407 0.507951 0.40501 -0.480124 -0.522435 0.28581 0.166751 0.31539 0.547265 -0.457471 -0.0667822 0.35855 0.345497 0.699692 0.168941 0.314401 -0.205254 0.0250204 -0.292363 -0.162855 0.476645 -0.322447 0.421557 -0.375746 -0.236156 -0.367022 0.154194 -0.432211 0.515257 0.0111847 -0.0863625 -0.224559 0.0949268 -0.255338 0.417215 -0.120204 0.877069 0.661416 0.382273 -0.0825372 0.588014 0.15119 -0.295456 0.236118 0.318099 -0.348075 0.446958 -0.223777 0.0330582 -0.590055 0.405328 -0.291575 0.0923273 -0.739541
262108 -0.0959487 -0.211502 0.271425 0.436888 0.0458826 -0.0258265 -0.482151 0.122423 -0.10532 0.038269 0.390593 -0.437504 -0.00864838 -0.332221 -0.263784 -0.46647 0.0590038 0.367645 -0.494034 -0.267614 -0.301737 -0.0572564 0.215599 0.366335 0.19978 -0.247223 -0.500999 -0.127718 -0.291348 0.593043 0.0619201 0.24462 -0.226544 0.0219494 -0.766815 0.0937495 -0.817944 -0.315762 -0.042148 -0.189601 0.111399 -0.756005 0.23801 -0.307967 0.0922307 0.288761 -0.26766 0.466062 0.659704 0.340072 -0.482081 -0.159581 0.594021 -0.184317 0.558388 -0.685222 -0.0777935 0.305308 0.365424 -0.742291 -0.0854015 0.274423 0.0302836 0.381037 -0.525922 -0.225379 -0.292162 0.234896 0.00378842 -0.0815981 0.179058 -0.0767029 -0.472704 -0.44039 0.611525 -0.483474 0.558053 -0.472689 0.157534 -0.631872 0.527048 -0.23608 -0.00724429 0.186112 -0.240356 0.413372 0.392804 0.31083 0.321073 0.0714263 0.0290092 -0.400693 -0.30584 -0.181913 0.258167 -0.119097 0.459172 0.16671 -0.039652 -0.259968
23448 -0.0599312 0.0367808 0.134334 0.179184 -0.144481 -0.487534 -0.182177 0.462288 0.729588 0.318262 0.415917 -0.543557 -0.194135 -0.246206 -0.581905 -0.15189 -0.08231 0.233443 -0.415726 -0.142111 -0.33857 -0.0402888 0.419552 0.00220866 0.42265 -0.411314 -0.337832 -0.581996 -0.294179 0.437365 -0.147899 -0.0745521 -0.288568 0.0103774 -0.604672 -0.116223 -0.452064 -0.969926 0.490477 -0.185194 0.398069 -0.334036 0.174854 -0.351398 0.123571 0.219714 -0.191517 0.608036 0.609331 0.302396 -0.145404 0.0260161 0.575617 0.0957901 0.417952 -0.859979 -0.272544 0.539212 0.430593 -0.265012 0.0683211 6.30786e-05 -0.104833 0.0642813 -0.395981 -0.061599 0.318839 0.002768 -0.246511 -0.267282 0.125141 -0.182383 -0.424689 -0.557566 0.352658 -0.447193 0.377771 -0.440078 0.314496 -0.578537 0.545395 -0.526718 0.294226 0.493197 -0.350868 0.120033 0.168818 0.290964 0.497625 0.00749957 0.0127398 -0.490239 0.216685 0.0446991 0.287264 -0.754116 0.272912 0.388997 -0.350268 -0.278092
131117 -0.280898 0.000266303 -0.116378 0.539555 -0.282347 -0.79882 -0.550788 -0.351535 0.222145 0.133109 0.350975 -0.217443 -0.282959 0.387463 -0.0868838 -0.0818833 -0.0739616 0.205546 -0.56708 0.0806778 -0.867249 -0.673852 -0.322958 -0.170274 0.542818 0.153072 -0.264694 0.369995 -1.17205 0.041167 0.325457 -0.379896 -0.244549 -0.269528 0.209036 -0.618254 -0.638251 -0.886711 0.0835369 -0.0132479 0.519639 -0.740344 -0.632503 -0.432765 0.597974 0.281515 0.137168 -0.0904251 0.583688 -0.241542 0.142251 0.175661 0.237829 0.16425 0.0953021 0.011308 0.465362 0.949031 0.0558688 0.333939 0.138958 0.129863 0.222058 -0.106445 -0.352514 0.337317 0.446247 0.179212 -0.537947 0.51877 -0.0575294 -0.630928 0.0437151 -0.562746 0.718529 -0.221206 -0.249527 -0.270126 -0.167871 -0.275909 0.365103 -0.256662 -0.338731 0.480323 -0.553772 -0.0979484 0.509106 0.339677 0.476355 0.22096 0.827929 -0.114101 0.363992 -0.740592 1.19596 -0.413772 0.506214 0.945754 0.346559 -0.362224
144330 0.156018 -0.651061 0.156217 -0.0942803 -0.165272 -0.717213 0.121105 -0.391488 -0.273782 -0.263084 0.401098 0.287717 -0.327298 0.189581 0.0206437 -0.412961 0.215348 -0.294203 -0.47153 0.104203 -0.158259 0.2788 0.177505 0.181954 -0.0485556 -0.0649076 -0.938146 0.923069 -0.617866 0.391776 0.510808 -0.357905 0.145752 -0.010754 -0.453415 -0.176389 -0.472017 0.207324 0.277541 0.188392 -0.220239 -0.540788 -0.137652 0.565562 0.430284 0.552801 -0.180959 0.619492 0.271838 -0.651565 0.0902164 0.0715914 0.439985 0.140687 -0.258895 -0.735424 -0.365708 0.198977 -0.592468 0.271063 0.666437 0.245085 -0.138173 0.765094 -0.0795212 -0.310567 -0.363603 0.476616 -0.0617439 -0.0264481 0.71359 -0.189439 -0.239957 0.176995 1.10612 0.0874891 -0.0086858 -0.678865 -0.0898462 -0.8302 -1.06232 -0.403231 0.997548 0.287419 0.0154866 0.215267 0.211769 -0.305478 -0.26361 -0.0984661 0.550148 0.549437 0.392111 -0.709403 0.00837556 0.219209 0.171063 -0.121112 0.142149 0.676041
91975 -0.167817 -0.307603 -0.0165038 0.316528 -0.453609 -0.110383 0.481906 0.675635 0.845684 -0.0237197 0.323525 -0.159446 0.557532 -0.00784061 0.170216 0.359243 0.0275503 0.699749 0.329599 0.0867666 0.284888 0.0439449 -0.442438 0.274315 0.0301377 0.367296 -0.258095 -0.397734 -1.11573 0.574543 -0.0716953 -0.30573 0.211219 0.0487646 0.0923782 -0.287792 -0.974528 -1.29498 1.02093 0.165702 -0.342406 -0.178179 0.263459 -0.305214 0.361324 -0.221565 0.0571288 -0.0291726 -0.372959 -0.510659 -0.168712 0.178625 0.628146 0.383262 0.637768 -0.72959 -0.242218 -0.226745 -0.0528033 0.473345 0.528214 0.394998 -0.0641847 0.895927 -0.307707 0.456434 0.320814 0.190245 -0.38154 -0.0428309 0.482205 -0.157134 -0.242393 -0.210356 -0.143391 0.0992308 0.452379 0.285822 -0.0203602 -0.190649 0.124374 -0.0615796 0.262167 0.159432 -0.21776 -0.601246 -0.017067 0.0641614 0.0795681 0.463801 0.690568 -0.656337 0.344436 0.0820299 0.362847 -0.0910872 -0.218103 0.259457 -0.384054 -0.0627836
193354 -0.0392173 -0.418191 0.734561 -0.399075 0.681756 -0.391441 -0.0716813 -0.453186 -0.292021 0.853546 -0.0749505 0.0586043 0.248542 -0.259246 -0.204184 -0.0410324 0.284818 0.0100782 -0.521138 -0.403872 -0.277169 -0.624182 -0.527534 -0.184876 0.131978 -0.181558 -0.67723 0.399323 0.0495957 0.640966 0.120323 -0.173213 -0.0722411 0.220091 0.0904466 0.12428 -0.708906 -0.774798 0.327936 -0.0886387 -0.493266 -0.191883 0.32932 -0.619123 0.601192 -0.136273 0.277975 -0.086714 -0.755232 -0.092895 0.189601 -0.0305401 0.442965 0.0624456 0.268611 -0.47525 0.359001 -0.155054 -0.161739 0.954125 1.04581 0.254517 -0.257172 0.678635 -0.482202 0.149185 0.199495 0.584513 0.339532 -0.517188 0.401844 0.108751 -0.352704 0.231505 0.503289 -0.391786 0.417459 -0.439374 0.645167 -0.655457 0.60626 -0.58783 0.129641 -0.054737 -0.479235 0.108573 0.559422 0.315178 0.815888 0.104215 0.0862592 -0.192524 0.14487 0.0772143 0.74556 0.263289 0.112093 0.763952 0.00339451 -0.893828
1109199 0.121085 0.337434 0.0286176 0.585977 0.094822 -0.332397 -0.694809 0.127718 0.227267 -0.0689797 0.0374163 0.475556 0.0889133 -0.361504 -0.000896467 -0.212746 -0.32816 0.358118 -0.420411 0.229943 0.121094 -0.254615 -0.41564 0.113173 -0.359675 0.294954 -0.326051 -0.00967339 -0.837519 0.487337 0.521632 0.164847 -0.119173 -0.135081 -0.0552261 0.285852 -0.306741 -0.495672 0.190265 -0.0502637 -0.0535028 -0.165403 0.316717 -0.228014 0.324906 -0.556851 0.26283 0.83331 0.00134618 0.17193 -0.0556902 -0.33505 0.501403 0.22271 0.305669 -1.03128 0.00283852 -0.514198 -0.0498395 -0.464348 0.117962 -0.420686 -0.134344 0.384888 -0.253878 0.223337 0.00769409 0.0540439 -0.350251 0.404197 0.528911 -0.424323 -0.660922 -0.0119126 0.94036 -0.393213 0.367249 -0.319944 0.104089 0.404137 -0.00745646 -0.407535 0.0500432 -0.118793 0.477447 -0.407998 0.413398 0.141149 0.0930975 0.468673 0.572624 -0.273042 0.0351298 -0.844956 -0.0958991 -0.247969 -0.367339 -0.597251 0.113699 -0.0732986
193352 -0.0703534 -0.407516 0.722752 -0.495966 0.652306 -0.425242 -0.0908419 -0.49033 -0.250133 0.922647 -0.0803023 0.0308316 0.190295 -0.305785 -0.25983 -0.0641425 0.367991 0.0443948 -0.525953 -0.412505 -0.350993 -0.677457 -0.544274 -0.256798 0.150698 -0.235894 -0.732771 0.485886 0.117418 0.701532 0.143786 -0.215752 -0.103208 0.263324 0.10897 0.163522 -0.780486 -0.829539 0.341523 -0.0296631 -0.529505 -0.198633 0.405429 -0.675141 0.67661 -0.151259 0.239175 -0.125643 -0.839659 -0.0812604 0.222772 -0.0466436 0.467572 0.0983533 0.246665 -0.514038 0.493492 -0.166864 -0.136 1.08556 1.14703 0.336996 -0.322112 0.760417 -0.563916 0.171971 0.204183 0.692689 0.355939 -0.522179 0.399872 0.0875942 -0.339692 0.258921 0.512653 -0.435623 0.453707 -0.521176 0.753833 -0.662187 0.699883 -0.651086 0.140559 -0.12039 -0.509687 0.0689436 0.592152 0.397411 0.869757 0.100348 0.0748794 -0.196158 0.158404 0.085271 0.74009 0.275875 0.139617 0.817901 -0.000871023 -0.983876
1121867 -0.652759 -0.0458486 0.202057 -0.460413 0.173801 -0.185105 -0.330034 -0.797552 0.645227 0.607372 0.574983 -0.461305 -0.0493068 -0.407203 -0.111932 0.175827 -0.16029 -0.0386501 0.0326062 -0.0972986 -0.575185 0.249379 0.0114618 0.140503 0.0437527 0.571707 -0.0885279 -0.459681 -0.456345 0.892253 0.731205 0.578021 -0.276683 0.0231104 -0.0361583 -0.426494 -0.446978 -0.477824 0.172262 0.520796 -0.97246 -0.538586 -0.374695 1.03294 0.152151 -0.0454911 0.145715 -0.184047 0.0154956 0.367738 0.203079 0.850753 0.590212 0.167235 0.476732 -0.0538947 0.432414 0.32604 -0.62014 -0.252376 0.63004 0.0284429 -0.407181 0.420661 0.151548 0.086499 0.109718 -0.697421 -0.0138344 -0.0815548 0.25717 -0.387795 -0.0262473 -0.372172 0.974423 -0.652645 0.0879794 -0.0633993 0.0538802 -0.806386 0.104794 -0.82445 0.363099 1.10341 -0.157153 0.119139 0.0103105 -0.157698 0.87965 0.160257 -0.0862218 -0.434726 0.230855 0.22508 0.460361 -0.387954 0.0559513 0.49494 -0.252876 -0.369534
1105505 -0.136277 -0.337214 0.320821 0.507406 -0.155638 -0.00101734 -0.405918 -1.28375 -0.0868431 0.1669 0.693832 0.164049 0.488498 -0.233217 0.108142 0.157109 -0.290462 0.146102 -0.316591 -0.217024 -0.0863957 0.273433 -0.599025 0.114183 0.295739 0.212385 -0.920471 1.02273 -0.442329 0.244053 0.158368 0.2414 0.170082 -0.621358 -0.371713 -0.349639 -1.0821 -0.214964 0.539448 -0.218988 -0.529101 -0.86287 -0.561501 0.0390923 0.0865015 -0.172749 0.0506249 0.523409 0.224234 0.374954 -0.515076 -0.69889 0.0554684 -0.422399 -0.00218781 -0.317713 0.240268 0.269956 -0.268286 -0.171437 0.513205 0.0782782 0.469218 0.671876 -0.0648931 -0.0394205 0.13208 0.353006 -0.303937 -0.23549 -0.436728 0.217764 -0.465435 -0.0419799 0.369038 0.258195 0.40103 -0.130325 0.548155 -0.686708 0.316101 -0.508748 -0.107485 0.159736 0.368896 0.653159 0.513103 0.245516 0.171526 0.097185 0.448688 0.545022 0.777368 -0.354175 0.0499698 -0.329674 0.250683 0.317588 -0.210832 -0.330734
103543 0.0139309 -0.281513 0.193435 0.681454 0.145255 -0.35243 -0.272359 -0.88778 0.570544 0.65588 0.145157 0.170627 0.0161869 -0.293095 -0.978988 -0.180206 -0.645078 0.166178 -1.38583 -0.17554 -0.791996 0.0945765 -0.245375 -0.205241 -0.287459 0.666534 -0.690539 -0.181299 -0.214685 0.876628 -0.0685749 -0.407572 -1.165 -0.0218829 -0.354299 0.13219 -0.527145 0.0106913 0.442763 0.398764 -0.978128 -1.25188 -0.295545 -0.735618 0.721353 0.080819 -0.0999655 0.0348044 0.604314 0.0711871 -0.440613 0.289262 0.491143 -0.171554 0.182878 -0.5791 -0.455319 0.63349 0.289408 -0.110531 0.0451554 0.653538 0.234297 0.304599 -0.615612 -0.218149 0.0700151 0.543562 -0.355947 -0.400964 0.289593 -0.0508358 -0.459212 0.0288303 0.327545 -0.0482514 0.406184 0.153708 0.200108 -0.462337 0.561313 -0.149201 0.315659 0.573733 0.278745 0.684435 0.37648 -0.137482 -0.116089 0.388782 -0.361479 0.0458641 0.613995 0.466997 0.092355 -0.0325899 0.394351 0.7432 0.474405 -0.0661055
1104055 -0.454773 0.118096 0.125592 -0.0689811 0.47288 -0.192725 0.303493 -0.849225 0.767182 0.871489 0.288776 -0.141405 -0.313346 -0.531436 -0.384658 0.678909 -0.0324799 0.061785 -0.301782 0.0973429 0.030716 -0.0362345 -0.340256 0.354799 0.142368 0.519722 -0.425531 -0.395543 0.0214245 0.287579 0.449489 0.45329 -0.0613155 -0.184222 0.218376 -0.620206 -0.605914 -0.375789 -0.773332 0.140289 -0.449432 -0.526859 -0.177013 0.38968 0.589505 0.0998052 -0.0991745 0.0095043 0.437992 0.0824124 -0.00366472 0.0320808 0.324999 -0.312051 0.533481 -0.199267 0.0277201 0.474447 -0.357893 0.293394 0.993205 0.17938 0.00862826 0.899981 0.427239 0.182243 0.113522 -0.122185 -0.255118 0.137991 0.208201 0.130714 -0.301948 0.167894 0.447649 -0.402451 -0.0337362 -0.35783 -0.395833 -1.11632 -0.325746 -0.577448 0.306945 0.129479 -0.391266 0.165846 -0.0773648 0.147439 1.09799 -0.0325769 -0.322373 0.125328 -0.406686 -0.0490958 -0.0730317 -0.678036 0.125996 0.201062 -0.639086 -0.119937
469504 -0.0457539 -0.951288 0.434297 -0.191583 0.125546 -0.287101 0.230112 0.437755 0.224158 0.620815 0.200261 -0.0590002 0.665106 0.172006 0.372276 0.40591 -0.337231 0.16788 -0.642693 -0.0709684 -0.222759 -0.0970412 -0.0558286 -0.168302 -0.0166816 -0.266112 -0.722205 0.0131414 -1.24745 1.02495 0.401536 -0.150398 -0.376417 -0.45545 0.0135654 -0.384682 0.241657 -0.580733 0.472006 -0.184558 -0.179475 -0.427001 0.0887533 -0.288182 0.345266 0.187181 -0.194231 0.612929 0.65334 -0.0710058 0.0104594 0.28409 0.518707 0.0560563 0.0708914 0.21006 -0.0821024 -0.0137493 -0.133075 -0.541944 -0.0134748 0.0875731 0.580071 0.539581 0.327207 0.105687 0.0486855 -0.423147 -0.729321 -0.353271 0.216855 0.538504 -0.781052 0.343038 0.413165 -0.294906 -0.0214116 -0.688168 -0.525742 -0.239434 0.170048 -0.981102 0.410244 0.255478 -0.375402 -0.179395 0.639913 -0.272636 0.515966 -0.387235 0.496901 -0.403161 -0.0190515 0.472978 0.285936 -0.0233665 -0.00429716 -0.134779 -0.154548 -0.0659837
6151 -0.440655 0.600877 0.03738 0.362803 0.267218 -0.364367 -0.171171 -0.252654 0.341869 0.0517356 -0.0661101 0.00399614 0.270914 -0.110666 -0.277633 -0.0891088 0.0519473 0.427557 0.174338 -0.0274589 0.295556 -0.247421 -0.272257 0.198577 0.377058 -0.0927089 -0.732451 0.213282 -1.03341 -0.100852 0.345814 0.0592301 0.0949282 0.398892 -0.0758131 0.181758 -0.715563 -1.32016 0.950485 0.0935789 -0.321804 -0.364997 0.780216 -0.624243 0.408109 -0.0426783 0.0610614 0.180923 -0.15804 0.22459 -0.14504 0.493017 0.671434 0.272557 0.0537151 -1.28052 -0.405645 -0.340103 0.451635 0.512082 -0.0767141 0.342579 -0.491566 0.964534 -0.516391 0.301916 0.274136 0.298511 -0.190972 0.300407 0.392558 -0.20466 -0.872651 -0.441402 0.537147 -0.662835 0.033482 -0.154109 0.0675351 0.118721 0.0334021 0.198556 0.421343 0.255056 0.44243 -0.42613 0.31926 0.0597235 0.163541 0.600314 0.285104 -0.784909 0.328533 0.0690631 0.0262233 -0.496811 -0.000887445 -0.601136 -0.179502 -0.222263
6152 -0.229856 0.379425 0.165045 0.416162 0.203923 -0.456223 0.115875 -0.143626 0.581083 0.142241 -0.0527589 -0.0542183 0.40152 -0.330773 -0.100871 0.011091 0.246465 0.305643 0.133075 -0.00193464 0.346585 -0.164299 -0.113948 0.177398 0.269526 -0.0707611 -0.466223 -0.0113817 -1.05823 0.0922451 0.387814 -0.190449 0.0113442 0.498087 -0.169808 0.149061 -0.866105 -1.33521 0.974515 0.107428 -0.120269 -0.439629 0.883153 -0.429239 0.512747 -0.000133706 -0.02456 -0.090106 -0.137245 0.0999496 -0.137889 0.47719 0.626969 0.607844 0.0195373 -1.03029 -0.433419 -0.10322 0.184232 0.750431 -0.0733083 0.635305 -0.180228 0.983588 -0.425257 0.267254 0.316398 0.267127 -0.359699 0.280114 0.428346 -0.288662 -0.861468 -0.331639 0.382666 -0.433777 0.185525 0.0268156 0.0426095 0.0196408 -0.0306424 0.0520237 0.484246 0.10556 0.344509 -0.401645 0.349909 0.0336194 0.192484 0.644954 0.329789 -0.783769 0.330582 0.0386174 0.0314957 -0.439962 -0.00541346 -0.436697 -0.405524 -0.0989076
189572 0.197535 -0.274644 0.704381 0.115428 0.392055 -0.196585 -0.229636 -0.59482 -0.389765 0.62579 -0.115096 0.441453 0.0308359 -0.314124 0.0560973 0.0631163 -0.204729 0.0511728 -0.627571 -0.263593 -0.589841 -0.315053 -0.374851 -0.322712 0.106615 0.152701 -0.557764 -0.0755918 -0.950539 0.795725 -0.395374 0.138203 -0.10772 -0.172842 -0.397488 0.122062 -0.169121 -0.0473465 0.275646 -0.333839 -0.0934483 -0.722104 -0.258089 -0.537743 0.00865864 0.165255 0.621206 -0.447329 -0.419324 0.265873 0.141237 0.28833 0.953813 0.0778044 -0.234252 0.0434889 -0.382557 0.652533 -0.530763 -0.0705327 -0.0338429 -0.24551 0.32994 0.166942 -0.616505 0.381289 0.0869128 -0.366592 -0.22654 -0.555708 0.2853 0.109977 -0.678183 -0.387451 0.732076 -0.126342 0.200068 0.0614222 0.687283 -0.0512564 0.677068 -0.588532 0.321156 1.03432 -0.271921 0.19275 0.222 0.412456 0.683802 0.52068 -0.0131336 -0.462573 0.910473 -0.803324 0.467341 0.0317298 0.1779 0.254315 -0.594422 -0.234861
6155 -0.0265037 0.557915 0.109617 0.258134 -0.0935092 -0.369568 -0.27122 0.123568 0.381455 0.312093 0.0300519 -0.153522 0.0619841 -0.199361 -0.154766 0.417973 -0.0121761 0.576013 0.101861 -0.0312482 0.0988047 -0.221358 -0.350005 -0.0296955 0.132136 0.161997 -0.472034 -0.0918085 -1.09774 -0.0435779 0.161299 0.0611747 -0.146971 0.23426 0.00700427 0.164659 -0.685025 -1.21194 0.910124 0.287181 -0.0382315 -0.336253 0.526289 -0.615631 0.402398 -0.287454 -0.249703 0.271423 -0.285172 -0.0863063 -0.0724969 0.397358 0.580502 0.355272 0.070242 -1.24991 -0.181582 -0.236288 0.267957 0.15978 0.347408 0.201562 -0.317738 0.904256 -0.535217 0.532157 0.377579 0.251107 -0.448167 0.267304 -0.137826 -0.204613 -0.786397 -0.329491 0.393477 -0.557404 0.271262 -0.170923 -0.150008 0.141814 -0.0304249 -0.00810982 0.233459 0.0936381 0.386767 -0.682023 0.470313 -0.0811212 0.246725 0.395109 0.534534 -0.511016 0.352667 -0.0594667 0.278008 -0.230872 0.034311 -0.318953 -0.209963 -0.164304
43186 0.0186302 -0.0986919 -0.278947 -0.338905 -0.579219 -0.558054 -0.169746 0.309765 -0.105113 0.648031 0.774257 -0.0509095 -0.165292 -0.314556 -0.31664 -0.00414407 -0.48305 0.410237 -0.16674 0.503676 -0.637112 -0.0956846 0.262564 0.0488036 0.118002 0.19062 -0.0498123 0.374099 -1.16765 0.0530451 0.0942335 -0.221529 -0.053789 0.724574 -0.329622 -0.861194 -0.0981633 -0.999264 0.230146 -0.54974 -0.0749657 -0.116771 -0.272215 -0.0633804 0.0523881 -0.313259 -0.23586 0.172338 0.302787 0.346392 0.161901 0.249162 0.123506 0.801663 -0.144425 -1.09436 0.173151 0.460263 -0.249652 -0.505105 0.736704 0.141929 0.107196 0.618743 -0.269579 -0.0996992 0.559718 0.208619 -0.0537108 -0.0948321 0.606331 -0.148841 -0.377907 -0.030123 0.840404 -0.951024 0.326253 -0.472434 0.644014 -0.205919 0.0303288 -0.475076 -0.370835 -0.472636 -0.354235 0.150766 0.0732813 -0.202144 0.668347 -0.553451 -0.160046 -0.0182943 0.750823 -0.0404874 0.721276 0.325162 0.409706 0.841262 -0.458229 0.0766662
287787 -0.546963 -0.347959 0.0105046 0.0599241 0.26127 -0.292442 -0.337538 -0.240727 -0.344459 -0.568006 0.209646 -0.273152 0.0969193 -0.367826 0.108348 -0.811012 -0.238197 0.36862 -0.950928 0.137732 0.298476 -0.755209 -0.695552 0.813976 -0.0646514 0.536286 -0.446792 0.16115 -1.58613 -0.0731147 -0.0351998 0.119273 -0.874985 0.00744338 0.0202503 0.474605 -0.926834 -0.652386 -0.152732 -0.197441 0.016081 -0.252555 0.530595 -0.290727 0.579227 0.0702968 0.151175 0.0581079 -0.065892 -0.0303316 0.0888298 -0.0224728 0.560849 0.459617 0.235333 -0.135327 0.429868 -0.28047 -0.35597 -0.28758 0.383295 -0.51864 -0.587833 0.995558 -0.230278 -0.107437 -0.331909 0.114744 -0.236208 -0.0374793 0.993571 0.00661324 -0.666056 -0.151382 0.810556 -0.514402 0.197248 -0.301328 0.559334 -0.0395093 -0.131461 -0.615013 0.242272 -0.0413806 -0.372338 -0.0886229 0.240795 -0.321889 0.14938 0.255158 0.102867 0.442797 -0.226603 -0.998042 -0.700275 0.0102721 -0.440805 -0.404864 -0.431687 -0.12228
289780 0.0906674 0.114067 0.234646 0.120716 0.187706 0.4546 -0.542388 0.0634213 0.308583 -0.346657 0.332689 -0.440338 0.313671 -0.729396 0.142343 -0.104208 -0.213593 0.357114 -0.79012 -0.0759267 -0.066632 0.360614 -0.164106 0.489544 0.280742 0.102681 -0.298075 0.14295 -1.02463 0.567277 0.0427735 -0.332974 -0.404329 -0.00227264 0.00305727 0.390078 -0.991639 -0.129195 -0.254289 -0.383159 0.0894467 -0.546222 -0.22525 0.0394544 0.658405 -0.219924 -0.0247073 0.524916 0.122696 -0.333015 -0.322146 -0.110309 0.548871 0.187719 0.279701 -0.499293 -0.380733 -0.385386 -0.133393 0.387908 -0.208961 0.144832 -0.304301 0.675876 0.0281838 0.113853 -0.485562 0.0766149 -0.220221 0.44336 0.439691 -0.0537432 -0.653128 0.0383585 0.787887 -0.265555 0.327764 -0.455948 0.784258 0.390723 0.406034 -0.778951 0.241592 0.0240814 -0.546548 0.281794 0.734256 -0.417187 -0.243439 0.103498 0.186359 -0.0521499 0.141615 -0.642551 -0.439837 -0.624795 -0.171998 -0.376731 -0.309487 -0.141315
277263 -0.195166 -0.486352 0.335967 0.180147 0.00676216 -0.0720887 -0.303048 -0.954426 -0.178516 -0.127516 0.995101 0.0734308 0.156271 0.0231889 0.511197 0.0598472 -0.0701161 -0.342142 -0.202943 -0.203906 -0.452776 0.15223 0.0263437 -0.00741605 -0.0484437 0.136188 -1.13001 0.921984 -0.902421 -0.129263 0.147308 -0.468446 0.00720686 -0.334797 -0.144085 -0.383067 -0.580775 -0.539494 0.625249 0.202756 -0.185798 -0.313505 -0.213402 -0.270722 0.476676 0.502051 0.0655352 0.921269 0.401757 0.0105756 -0.417072 -0.32878 0.814186 -0.116641 -0.191128 -0.118883 0.781936 -0.134961 -0.279382 0.0651681 0.47737 0.0186221 0.110212 1.22666 0.00451916 -0.217824 0.256282 0.294049 0.174515 -0.0541357 0.230128 0.0862731 -0.273286 0.122417 0.402442 0.140785 0.143381 -0.223248 0.254038 -0.754999 -0.0975532 -0.000215582 0.522867 0.366199 -0.208887 0.0733721 0.206724 0.546027 0.216747 -0.234417 0.244831 0.741522 -0.0455781 -0.0780577 -0.104171 -0.414185 -0.354508 0.155955 0.236096 -0.197189
1106287 0.0346806 0.354661 0.0749928 0.377332 0.319875 -0.554617 0.0707523 0.655488 0.699629 0.453683 0.706239 -0.288609 -0.286036 -0.14074 -0.65488 -0.0588693 0.146342 0.309034 -0.0299116 -0.454658 -0.673646 -0.131971 0.522637 0.010412 0.47003 -0.125762 -0.261024 -0.603483 -0.44732 0.218033 0.00967896 -0.0815854 -0.372965 -0.0319125 -0.324504 0.135683 -0.544112 -1.12355 0.671726 0.026354 0.195162 -0.718892 0.155777 -0.554049 0.0972181 0.185332 -0.176201 0.625541 0.585099 0.414083 -0.577634 -0.216723 0.0855775 -0.163806 0.300173 -0.619065 0.0100938 0.500294 0.153756 -0.34195 0.0975921 0.254581 0.0286199 0.333715 -0.34424 0.0172449 0.231824 0.0364284 -0.176823 -0.728009 0.0479896 -0.0732791 -0.499755 -0.450602 0.36211 -0.302757 0.32764 -0.523575 0.390056 -0.625106 0.334453 -0.476687 0.0456062 0.763148 -0.234824 0.154507 0.150106 0.281715 0.616643 0.259559 -0.244028 -0.286412 0.250934 0.0150079 0.364887 -0.341392 0.421967 0.844729 -0.340094 -0.706278
158098 -0.101437 -0.0204209 0.296645 0.0534596 0.237955 -0.13158 -0.0429583 -0.403069 -0.0118774 0.500527 0.271131 0.413494 -0.0221737 -0.470862 0.217659 -0.119243 -0.159252 0.0351775 -0.434018 -0.310587 -0.571746 -0.348817 -0.331917 -0.441102 -0.0763174 0.137673 -0.511266 0.0578875 -0.99322 0.722178 -0.507053 0.157545 -0.225927 -0.074001 -0.176859 0.358025 -0.580115 -0.356948 0.548229 -0.400958 0.0979502 -0.755273 -0.467312 -0.146929 0.28822 0.0654786 0.612867 -0.438871 -0.105316 0.253985 0.559982 0.223599 1.01697 0.202223 -0.694948 -0.022943 -0.261003 0.97372 -0.515957 -0.166818 0.0696381 -0.234832 0.262643 0.125679 -0.536711 0.544633 -0.053141 -0.279502 -0.532016 -0.390102 0.231027 -0.236712 -0.573204 -0.722112 0.788316 -0.308619 0.332561 -0.127058 0.826198 -0.289942 0.70904 -0.774806 0.179428 0.894514 -0.147696 0.152267 0.141798 0.49913 0.471332 0.0288333 0.0612221 -0.253042 1.12383 -0.639425 0.0458567 0.0385537 0.167351 0.238329 -0.4346 -0.100885
69392 0.0544109 -0.322416 0.236473 -0.0273191 -0.472446 -1.01085 -0.107464 -0.0674173 0.445294 0.584808 1.05914 -0.126462 -0.609235 -0.51442 -0.570819 0.276255 -0.301784 0.0144447 0.128535 -0.171775 -0.212405 0.171773 0.506983 -0.0332586 0.681629 -0.257816 -0.152134 -0.584954 -0.484458 0.43359 -0.0177703 -0.204226 -0.362287 -0.0569931 -0.118496 -0.602894 -0.255587 -0.825668 0.883305 0.3767 0.248953 -0.437676 0.223648 -0.150271 0.0607189 0.323211 -0.119383 0.367938 0.32063 -0.0148756 -0.350391 0.470254 -0.161751 0.202547 0.306508 -0.711737 -0.195271 0.319014 0.499393 0.10146 0.209062 0.0776925 -0.329344 0.036261 -0.252534 -0.0742848 0.47874 -0.10778 -0.154311 -0.438017 0.257821 -0.462008 0.085324 -0.310393 0.564105 -0.207905 0.109743 -0.455158 0.513194 -0.323555 0.458438 -0.814086 0.974611 0.663054 0.0337057 -0.429238 -0.14789 0.116805 0.0243121 -0.235446 0.0880847 -0.315491 0.428024 0.106715 -0.0509946 -0.684874 0.0224692 0.138879 -0.377697 -0.507153
1132434 0.0595741 0.195254 0.103643 -0.180556 -0.324939 -0.971211 -0.146178 -0.203355 0.178356 0.42896 0.793372 0.0554741 -0.347131 -0.704981 -0.467334 0.328833 -0.305212 0.134897 -0.496628 -0.437397 -0.053976 0.192292 0.365992 -0.00512343 0.559617 -0.0623551 -0.637479 -0.0977783 -0.604482 0.882209 -0.00832507 0.104277 -0.663175 0.0758213 -0.0702231 -0.824678 -0.366262 -0.27718 0.456983 0.136076 0.443207 -0.501827 0.501992 -0.18965 0.848576 -0.130051 -0.0241208 0.0119537 0.682025 -0.371806 -0.369201 0.437478 -0.334158 0.464954 0.245025 -0.383506 -0.347697 0.520424 0.0967645 -0.203451 0.0756225 0.557837 -0.0125548 -0.0660502 -0.114992 -0.350285 0.351681 -0.135575 -0.0628835 -0.248478 0.47479 -0.391375 0.133747 -0.20801 0.548493 -0.305313 0.169995 -0.382736 1.16146 -0.364353 0.241253 -0.538719 0.742374 0.735116 -0.0586094 -0.178615 -0.0127066 0.176394 -0.245629 -0.177974 0.427182 -0.463477 0.202012 0.0576586 -0.231787 -0.432056 -0.0657909 -0.288231 -0.171363 -0.256926
69397 -0.41348 -0.68655 0.427179 0.326077 0.701152 0.0902312 -0.00517455 -0.663945 0.0700631 0.0396251 0.17791 0.0279816 0.521153 -0.311626 -0.631815 0.112532 -0.588941 -0.0956903 0.460806 0.256789 -0.040034 0.00784 -0.47661 -0.00849104 0.0680986 0.578303 -0.867533 0.74176 -0.798407 0.26225 0.412322 0.0916018 0.101664 -0.266621 0.48417 -0.663426 -0.784619 -0.322225 0.416822 0.317452 -0.521047 -0.234106 -0.303927 -0.0892477 0.406527 0.0141727 0.536435 0.498121 0.200152 -0.359062 -0.174336 -0.357892 0.128619 -0.246235 0.202522 -0.307729 0.134862 -0.473627 -0.207506 -0.0629021 0.17643 0.464807 -0.158042 0.835687 -0.348851 -0.0921713 0.500838 -0.281164 -0.336006 0.360993 0.638372 -0.0276339 -0.171996 0.0389711 1.01725 -0.0636255 0.394398 -0.305514 -0.265892 -1.49204 -0.577684 0.350982 0.118986 0.146398 -0.255187 0.313502 0.344914 -0.223072 0.143959 -0.932089 -0.0732426 0.0718828 0.0567073 -0.174612 0.0534152 -0.220719 0.254865 -0.116008 0.0847919 -0.669291
65650 -0.576266 -0.0381517 0.218065 0.139525 0.409339 0.195708 0.301398 -0.0386886 0.338707 0.0853093 -0.116143 0.0445457 0.0473343 -0.316009 -0.311214 0.802993 -0.14822 0.264522 0.241225 -0.0126281 -0.318322 0.567349 -0.101514 0.296121 -0.442041 0.819365 -0.924593 -0.717223 -0.775801 0.648301 0.204486 0.615862 -0.140628 -0.331538 0.416086 -0.250284 -0.402501 -0.140144 0.650101 -0.25984 -1.00543 -0.557303 -0.522318 0.156487 0.330733 0.0942112 -0.366605 0.706329 -0.219777 0.548224 -0.434902 0.169098 0.735604 -0.12978 0.535034 -0.343664 -0.665512 0.092444 -0.0802328 -0.33157 1.22772 0.115087 -0.284309 0.835021 0.0423809 0.580989 -0.517311 0.0174193 -0.168414 -0.293669 -0.175457 0.167724 0.197875 -0.10774 0.88087 -0.247618 0.389933 0.235286 0.121565 -1.1415 -0.227645 -0.313468 0.26395 0.508042 -0.60807 -0.0293305 0.346088 0.123524 0.62092 0.0903385 0.180627 -0.546334 0.427163 0.00535862 0.0605396 -0.240734 0.0380245 0.297599 -0.0537144 0.484153
65653 -0.412118 -0.484473 -0.212436 0.3816 -0.339588 0.152866 0.746667 0.0970456 0.0426183 -0.50135 0.558591 -0.38984 -0.159212 0.0870358 -0.614521 -0.0239651 -0.0816506 0.611044 -0.45731 0.188667 -0.24561 0.429473 0.181749 0.409914 -0.724577 0.5742 -1.38059 -0.137461 -0.573944 0.422535 0.738435 0.28125 -0.0286753 -0.220469 0.164861 -0.612191 -0.527476 -0.46536 0.732633 -0.491321 -0.995393 0.393058 -0.129065 -0.137352 -0.00236924 -0.254373 0.419549 0.783338 -0.246191 -0.33633 -0.648818 -0.221226 0.911797 0.0950059 0.862928 -0.483227 -0.221072 -0.0922046 -0.478604 0.311118 0.475292 0.428211 -0.132453 1.16684 0.0281951 -0.208173 -0.124711 0.0147913 -0.0747678 -0.462735 0.422251 -0.16866 -0.309053 -0.160004 0.903086 -0.129061 -0.163151 0.173641 0.113775 -1.25185 -0.121425 0.163435 0.593379 0.557812 -0.532409 0.268507 -0.117155 -0.266586 0.100699 0.243713 -0.234887 0.116423 0.307161 0.196586 0.39582 -0.167136 -0.377195 -0.024688 -0.182161 0.141899
8696 -0.152973 -0.285625 0.340935 0.112643 -0.32797 -0.480023 -0.315633 -0.0553512 -0.0568135 0.0107451 0.367691 -0.0796417 0.047314 -0.318877 -0.100374 -0.271996 -0.526031 -0.122784 -0.113003 -0.132469 0.027494 0.309034 0.265209 0.0164869 0.136145 0.0263921 -0.87603 0.526836 -0.773976 0.259323 0.725519 -0.425534 0.435263 -0.168774 -0.322751 -0.3587 -0.80821 -0.323559 0.726001 0.0175144 0.254627 -0.656245 -0.257761 0.675896 0.664796 0.029829 0.459365 0.0561273 0.226949 -0.7256 -0.264676 0.556721 0.637107 0.646771 0.0121382 -0.428771 0.384087 -0.187206 -0.0359646 0.181021 0.400966 0.178716 -0.127759 0.924335 -0.283935 -0.167769 -0.0642363 0.335617 -0.228393 0.387507 0.455081 -0.602292 -0.714791 0.108235 0.592682 -0.355476 -0.0715809 -0.373181 -0.0191049 -0.722251 -0.384337 -0.0134913 0.123287 0.00365835 0.0556049 -0.11626 -0.292517 0.399145 0.655494 0.319393 -0.0249503 0.0969275 -0.122191 -0.112698 0.172681 0.0781591 -0.145826 -0.178075 0.433282 -0.446113
3237 0.0508833 -0.82889 0.412117 -0.124795 -0.0397861 -0.757264 0.099658 -0.00615322 0.180578 0.210921 0.975553 0.2924 -0.31038 -0.501209 -0.112556 0.0777544 -0.418709 0.107059 -0.196343 0.0319976 -0.461972 0.356625 0.0313202 -0.165881 0.0234276 0.425748 -0.652266 0.0439924 -0.563703 0.349683 0.931172 -0.114347 -0.164455 -0.476087 -0.359581 -0.564056 -0.324929 -0.585506 0.767942 0.352181 0.140995 -0.269475 -0.643287 0.583785 0.373921 0.615169 0.266017 0.0614808 0.394181 -0.21173 -0.17356 0.332026 0.551956 0.320605 0.402195 -0.454303 0.487222 -0.184344 0.435566 0.135074 0.458612 0.197928 -0.468098 0.609344 0.158359 -0.73613 0.282104 -0.0817034 0.183983 0.103282 1.1792 -0.737793 0.04798 0.194976 1.03118 -0.472916 0.125223 -0.416176 -0.30637 -1.03512 -0.523537 -0.36173 1.12774 0.539287 -0.0313951 -0.148707 -0.251054 0.745421 0.567525 -0.146663 -0.26105 0.392115 0.301621 -0.0558738 0.569567 -0.517749 -0.814456 0.243184 0.489841 0.257706
100701 -0.0188556 -0.744237 0.636455 0.271784 0.195067 -0.226591 0.182139 0.106947 -0.333235 0.4367 0.415206 -0.305683 0.515475 0.0290416 -0.00529542 0.251703 0.356254 0.538719 0.175868 -0.51002 -0.273821 0.329712 -0.505468 0.408871 -0.425331 0.284297 -0.54413 0.403221 -0.839028 0.803609 0.382049 0.129745 -0.42126 -0.0431748 -0.0165631 -0.127697 -0.492398 -0.177896 0.219168 -0.119845 0.0781055 0.0610582 -0.0924579 -0.226472 0.483888 -0.0806155 0.0865855 0.155069 0.864758 0.0820567 -0.0885253 0.284549 0.163104 0.00574944 -0.129849 -0.256827 0.16277 0.347005 0.15586 0.145484 -0.339608 0.232878 0.328064 0.230681 -0.299016 -0.1941 0.110759 -0.131045 -0.199268 -0.0226466 -0.0465131 -0.851763 -0.30185 -0.0560302 0.901081 0.219653 0.0744512 -0.312186 -0.10263 -0.451473 -0.02682 -0.229798 0.476556 -0.0719338 -0.140215 0.0617639 0.305465 0.230658 -0.301356 0.33222 0.20707 -0.663203 0.124996 0.127765 0.131276 0.598437 0.339124 0.692506 0.0607969 0.0798955
1102442 0.220793 -0.837365 0.261572 -0.69557 -0.643713 -0.20256 0.123343 -0.115521 0.274111 0.0368952 0.570595 -0.286438 -0.0206533 -0.0205154 -0.356779 0.0982859 -0.144208 0.26658 0.0391318 0.110471 -0.248704 0.270287 -0.0757679 0.156279 -0.315048 0.576252 -0.606058 0.00756614 -0.611612 0.892011 0.601465 -0.0778643 0.0480594 0.174642 -0.243182 -0.270981 -0.428488 -0.62741 0.759299 0.0381462 -0.844524 -0.211788 -0.167786 0.504036 -0.139282 0.144332 0.478073 0.0791208 0.0346044 -0.352108 0.250458 0.413471 0.672647 0.329901 0.35852 -0.0547951 -0.233961 0.238997 -0.268835 0.0598384 0.390109 -0.093816 0.158914 0.376125 0.0274276 -0.49273 0.258435 -0.880439 0.517996 -0.490704 0.548998 -0.485502 -0.43951 -0.152982 0.620066 -0.121714 0.344868 -0.225336 0.414954 -0.912363 0.355261 -0.181706 0.416913 1.16701 0.0988327 0.169489 -0.198483 0.281181 0.220533 0.00407039 0.251322 0.276841 0.49599 0.016602 0.443099 -0.257549 -0.354482 0.325894 -0.25501 -0.333195
689439 -0.162325 -0.456762 0.27548 0.440165 0.289837 -0.591094 -0.277353 0.25961 -0.188563 0.129736 0.578484 -0.0931946 0.632141 -0.570485 0.122633 0.0715642 0.230961 0.18638 -0.54062 0.0245616 -0.0907915 0.103957 -0.635388 0.0645512 0.325022 0.531767 0.00871423 -0.0957784 -0.951101 0.673101 0.288573 0.297217 -0.504242 -0.0364789 -0.335635 -0.8453 -0.725474 -0.468715 1.00001 -0.403555 0.0710723 -0.401233 -0.428619 -0.726178 0.0910423 0.360305 -0.185513 0.130303 0.0531959 -0.783555 -0.11995 0.639554 -0.600708 -0.266096 -0.0447198 -0.510152 0.127325 -0.0177909 -0.270491 -0.614947 -0.14352 0.3085 0.0137411 1.12436 0.150697 0.159255 0.0851957 -0.00999382 -0.0201784 -1.0878 0.317513 -0.00562455 -0.00528351 -0.380297 0.893054 0.139911 -0.217274 -0.205443 0.0969978 -0.977734 0.354183 -0.315154 -0.199833 0.502531 -0.0539684 -0.446279 -0.0453611 -0.249805 0.048384 0.384532 0.343522 -0.315136 -0.395081 -0.297573 0.0338054 0.168434 -0.2894 0.637068 0.0607787 0.310295
853114 0.0818853 0.0497103 0.277727 0.28343 -0.235971 -0.135412 -0.286256 0.180909 0.175829 -0.0364091 0.178909 -0.755228 0.367452 -0.286542 -0.644339 -0.183293 -0.213735 0.556325 -0.661194 -0.117826 -0.613488 -0.371111 0.260331 0.0793244 0.132758 -0.154858 -0.428862 -0.221205 -0.287164 0.787842 0.350386 0.102884 -0.235134 -0.000171842 -1.17037 -0.197757 -0.757566 -0.710485 0.0381731 -0.425704 0.0549151 -0.523397 0.0319332 -0.536306 0.225853 -0.164508 -0.417238 0.703647 0.439664 0.212381 -0.323306 -0.113774 0.533386 0.0416829 0.505009 -0.88078 -0.125201 0.936349 0.24642 -0.708374 0.194486 0.599704 0.202467 0.210973 -0.444258 0.152696 -0.242234 0.321896 0.0770813 0.113775 0.0217225 -0.227647 -0.453766 -0.706816 0.486385 -0.19939 0.536406 -0.655899 0.296978 -0.881872 0.361362 -0.251711 -0.368449 0.549899 -0.247691 0.24091 0.136039 0.257877 0.821434 0.0482543 -0.283814 -0.368464 0.197661 0.242051 0.610692 -0.224133 0.59888 0.73208 -0.0450587 -0.340723
853115 0.0824015 0.085601 0.263045 0.346361 -0.224561 -0.165601 -0.37721 0.217968 0.183784 -0.0310377 0.239146 -0.760729 0.316422 -0.302029 -0.647351 -0.242236 -0.161471 0.518065 -0.649673 -0.109414 -0.566958 -0.434808 0.344284 0.115115 0.151406 -0.182234 -0.444628 -0.26853 -0.295319 0.750418 0.396636 0.0903863 -0.22659 0.0096631 -1.10256 -0.132432 -0.883401 -0.777586 0.126358 -0.484435 -0.00741913 -0.573324 0.054818 -0.556602 0.195281 -0.149312 -0.411744 0.713879 0.405013 0.28267 -0.414201 -0.0736506 0.606371 0.00354254 0.571914 -0.93927 -0.135229 0.978551 0.299184 -0.632434 0.186623 0.541999 0.163084 0.282648 -0.475989 0.209007 -0.217585 0.477659 0.0349402 0.143863 0.0885198 -0.339995 -0.481469 -0.735197 0.552927 -0.231625 0.46376 -0.585745 0.325961 -0.914615 0.436717 -0.243078 -0.346204 0.481323 -0.224578 0.324131 0.123241 0.241597 0.771595 0.130148 -0.324469 -0.404867 0.236999 0.154968 0.605325 -0.21311 0.555598 0.761936 -0.0559462 -0.401368
853116 0.138975 0.0843531 0.300039 0.358416 -0.201963 -0.190118 -0.321192 0.132909 0.167299 0.0530138 0.245485 -0.741561 0.321443 -0.250497 -0.628646 -0.179579 -0.185374 0.514094 -0.660963 -0.123305 -0.681794 -0.418923 0.339197 0.048682 0.1611 -0.058667 -0.410707 -0.297114 -0.244011 0.778269 0.349561 0.10615 -0.270433 -0.0365002 -1.1277 -0.150189 -0.834934 -0.730848 0.0515684 -0.37437 0.0338863 -0.62989 -0.0446758 -0.546595 0.254336 -0.0815984 -0.435511 0.715102 0.453938 0.293033 -0.409236 -0.0926055 0.566025 0.0207196 0.560977 -0.856604 -0.108005 1.01281 0.307407 -0.660631 0.174692 0.593528 0.158543 0.247882 -0.432024 0.180604 -0.226893 0.426726 0.0573419 0.0727485 0.00893977 -0.332411 -0.380234 -0.757428 0.565072 -0.165899 0.526939 -0.613937 0.295903 -0.911064 0.442109 -0.233394 -0.311487 0.529284 -0.18882 0.311401 0.156219 0.245636 0.705884 0.0986804 -0.316966 -0.417533 0.282352 0.189659 0.626273 -0.234895 0.631164 0.783498 0.00204673 -0.400371
52003 -0.13718 -0.452707 0.484034 0.153121 0.281361 -0.663928 -0.183937 -0.302067 0.084501 0.607264 0.537682 -0.0445352 0.34591 -0.498031 -0.285264 0.215527 -0.340995 0.302435 -0.522033 -0.114262 -0.287498 -0.148134 -0.299283 0.11805 0.00991293 0.311201 -0.757453 0.167769 -1.36612 0.80874 0.409017 0.026148 -0.513336 -0.132998 -0.215896 -0.445471 -1.12402 -0.74399 0.470916 -0.0229851 -0.268982 -0.809216 -0.0327714 -0.395396 0.691457 0.0273387 0.292478 0.435899 0.39399 -0.209767 -0.167642 0.326636 0.774724 0.311248 0.205231 -0.479359 -0.143303 0.286859 -0.347859 0.221221 0.544973 0.326129 0.10217 1.03557 -0.3574 0.000451824 0.273154 -0.0106156 -0.203817 -0.257715 0.403078 -0.20968 -0.572089 -0.0924792 1.13752 -0.458089 0.215475 -0.447818 0.443218 -0.765726 0.182708 -0.681703 0.487891 0.381998 -0.27766 -0.0422327 0.486569 0.0542599 0.471389 0.106074 0.234325 -0.407079 0.382391 -0.290808 0.366197 -0.277181 0.257255 0.307472 -0.284777 -0.0990158
52000 -0.0981754 -0.34815 0.386337 0.12312 0.230122 -0.518371 -0.14915 -0.232151 0.0726441 0.472431 0.417322 -0.0319348 0.262655 -0.410155 -0.223901 0.166089 -0.26748 0.238569 -0.422575 -0.0780218 -0.231612 -0.117453 -0.242503 0.0932132 0.0264298 0.245529 -0.591305 0.122468 -1.07147 0.631397 0.31498 0.021861 -0.404569 -0.0883873 -0.175609 -0.342304 -0.873533 -0.58644 0.379686 -0.0187742 -0.193437 -0.639107 -0.0229721 -0.308044 0.543214 0.0263102 0.238561 0.344766 0.316789 -0.155973 -0.122238 0.249712 0.609739 0.248273 0.164535 -0.389834 -0.11107 0.227271 -0.276613 0.166112 0.412679 0.255598 0.084241 0.799098 -0.288316 -0.00646256 0.213758 -0.0117119 -0.161413 -0.206495 0.310769 -0.175646 -0.470591 -0.0816676 0.892363 -0.364263 0.17655 -0.348094 0.357011 -0.590386 0.152184 -0.534273 0.373955 0.292527 -0.217946 -0.0272447 0.382902 0.0405927 0.370707 0.0928206 0.185054 -0.315102 0.293225 -0.223841 0.279133 -0.213568 0.203952 0.25577 -0.2336 -0.0885746
853118 0.0917125 0.336354 0.113711 0.297985 -0.250732 -0.108762 -0.299643 -0.193074 0.0284929 0.188658 0.426941 -0.377918 0.281758 -0.384464 -0.463511 -0.272629 0.0895513 0.378893 -0.480665 0.103176 -0.748692 -0.328495 0.0773461 0.00769686 0.109923 0.0929509 -0.199307 -0.0270935 -0.381799 0.620904 0.357757 0.158329 -0.151888 0.169246 -0.699253 -0.145029 -0.825297 -0.543536 -0.0250081 -0.238601 0.237428 -0.424616 -0.218493 -0.363437 0.0368403 -0.36066 -0.195764 0.229165 0.296039 0.214535 -0.272308 -0.0853867 0.336001 -0.0163001 0.214143 -0.96142 0.0854587 1.09939 -0.207443 -0.616018 0.310979 0.691009 0.148334 0.1567 -0.518619 0.221909 -0.194476 0.107443 -0.166791 0.326583 0.108339 -0.423262 -0.360567 -0.696286 0.560659 -0.108413 0.567368 -0.396946 0.360626 -0.661393 0.283624 -0.401425 -0.33885 0.410047 -0.126293 0.203146 -0.0190072 -0.013427 0.666652 0.0793203 -0.325095 -0.199533 0.531488 -0.0282534 0.521971 -0.0214296 0.564188 0.736632 0.0788524 -0.353653
52007 -0.0935042 -0.334115 0.358256 0.114956 0.20731 -0.487741 -0.150921 -0.228237 0.0753326 0.445262 0.391073 -0.0331004 0.245943 -0.381001 -0.219351 0.150729 -0.251524 0.224481 -0.391234 -0.0759155 -0.229602 -0.102697 -0.236367 0.0872554 0.0253898 0.237381 -0.563983 0.117532 -1.00741 0.585789 0.297915 0.012795 -0.379625 -0.0802604 -0.173619 -0.329727 -0.815151 -0.558011 0.349876 -0.0113004 -0.190247 -0.592664 -0.0270862 -0.289375 0.510057 0.0213491 0.22103 0.316526 0.298034 -0.146994 -0.122597 0.238472 0.555322 0.23461 0.149959 -0.367371 -0.0965091 0.216942 -0.260222 0.159663 0.385334 0.252434 0.0724756 0.750886 -0.270325 -0.00740276 0.198659 -0.00283641 -0.145994 -0.197362 0.289907 -0.171795 -0.44387 -0.0776898 0.841105 -0.331678 0.1549 -0.338289 0.339856 -0.556985 0.146813 -0.491192 0.347786 0.272979 -0.201572 -0.0254219 0.360739 0.0407066 0.343022 0.0768735 0.170945 -0.290575 0.281034 -0.208328 0.269313 -0.210044 0.193461 0.236782 -0.217319 -0.0818244
1129015 -0.139333 -0.362257 0.116095 0.543044 0.44304 -0.609823 -0.680676 0.0936005 -0.952814 0.420953 0.343528 0.0677164 0.315939 -0.48686 0.474961 0.412281 -0.578946 0.111677 -0.452466 0.440758 -0.0639235 -0.441029 0.282033 0.494362 -0.203742 -0.00767286 -0.561634 -0.0845908 -0.865692 0.633929 -0.15043 -0.276204 -0.684227 0.269521 -0.634401 -0.628147 -0.610395 -0.00255391 -0.602137 0.265425 -0.570961 -0.287321 1.14583e-05 -0.126489 0.886128 0.330227 -0.144413 0.36777 0.766496 0.0107982 -0.137157 0.332744 0.26884 0.569223 0.233213 0.047769 -0.4414 0.657548 -0.795211 -0.391478 0.648676 0.457429 0.14977 0.533067 -0.139411 0.274518 0.232323 -0.393105 -0.285728 -0.101158 -0.0930944 -0.0381437 -0.147308 0.0929296 0.824819 0.0418949 0.161533 -0.582664 0.685964 -0.182734 -0.579988 -0.765373 0.566863 -0.183902 0.116676 0.0482459 -0.0650252 0.0128248 0.00996889 0.282146 -0.257032 -0.624698 -0.289698 -0.414998 0.527301 0.123659 0.064316 0.302357 0.641059 0.443066
1129018 -0.192665 0.162731 -0.00128821 0.22419 0.143836 -0.21045 -0.494561 0.182542 -0.217186 0.182021 0.0486244 0.0751234 -0.00770951 -0.816176 -0.0515879 -0.035444 -0.0408003 0.162645 -0.468955 0.0756469 -0.105165 -0.436027 -0.244653 0.459267 0.234319 -0.0328675 -0.17161 0.231394 -0.756327 0.496854 0.170407 0.116699 -0.886356 0.228005 -0.100876 0.0133668 -0.674476 -0.11638 -0.464282 -0.356841 0.0547245 -0.237718 0.469935 -0.391047 0.415074 0.0448815 -0.0740865 0.288634 0.569694 -0.17703 0.0214559 0.0869787 0.34869 0.21516 0.278151 -0.48714 0.0774125 -0.395497 -0.296353 -0.515507 0.144543 0.0979203 -0.505098 0.579901 0.140629 0.0399903 0.0597398 -0.127006 -0.127821 0.257289 0.339186 -0.0582155 -0.625257 -0.0198199 0.652982 -0.565996 0.458717 -0.0715344 0.847105 0.187806 -0.0396772 -0.392436 0.36506 -0.106515 -0.0733742 -0.16452 0.256429 0.189907 0.0113967 0.080168 0.252413 -0.585367 -0.223913 -0.32161 -0.291671 -0.428306 -0.13991 -0.631778 -0.262167 0.318852
1132505 0.0654231 -0.17767 0.360076 -0.348462 -0.467625 -1.1383 0.0662523 0.088677 0.187196 0.612431 0.596518 0.0199697 -0.116767 -0.712701 -0.362041 0.691319 -0.341002 0.101052 -0.204023 -0.528115 -0.177054 0.327232 0.362549 0.286622 0.445503 -0.213201 -0.680579 -0.102094 -0.655406 0.897233 0.121379 0.120933 -0.978109 -0.129319 -0.103564 -1.02526 -0.404366 -0.547648 0.459637 0.339017 0.577352 -0.533635 0.741609 -0.344451 0.938834 -0.0378308 -0.290683 0.0494835 0.605378 -0.528931 0.119447 0.512547 -0.450996 0.480156 0.0483952 -0.436151 -0.323048 0.139591 0.0886211 -0.118332 0.073391 0.661242 0.238207 0.0591808 -0.185092 -0.13666 0.305565 0.0366295 -0.00584502 -0.17033 0.537803 -0.286441 -0.125806 -0.105963 0.490384 -0.634256 0.00903815 -0.571603 1.09771 -0.149578 0.267689 -0.801004 0.537171 0.901608 -0.232602 -0.479895 0.114503 0.166299 -0.363321 -0.0127037 0.348553 -0.663675 -0.0615209 -0.0154215 -0.297433 -0.254808 -0.202779 -0.330817 -0.230275 0.0984566
43698 0.24402 -0.200905 0.398921 -0.262439 1.0645 -0.566353 0.05323 0.228659 -0.690332 0.569648 0.193717 0.489199 0.819179 -0.664088 -0.503732 0.525764 -0.277143 -0.173938 0.170902 0.293862 -0.29692 -0.379772 -0.192259 -0.0341488 0.0542842 0.399727 -0.134034 0.315418 -0.897958 0.550402 0.54444 0.378817 -0.867053 -0.0255636 0.574692 -0.406828 -0.883234 -0.0620492 0.535579 -0.162815 -0.209002 -0.61372 -0.637576 -0.624685 0.291895 0.0462262 0.429478 0.498765 0.00955463 -0.400388 -0.104875 0.174332 0.398481 0.244873 -0.231918 -0.153851 -0.168504 -0.0302789 -0.0715679 0.198476 0.493576 0.882586 0.274483 0.235889 -0.023928 -0.0345437 -0.363106 -0.610859 -0.675567 -0.279781 0.700343 0.0626705 0.135494 0.0845315 0.62493 -0.671105 0.359549 -0.176321 -0.116439 -0.400966 -0.43167 -0.722436 0.3644 0.559376 -0.442295 0.0354342 0.828705 0.00821042 0.36486 -0.599642 -0.751381 -0.409807 -0.27413 -0.151951 0.032729 -0.134296 0.43231 0.640114 0.0943338 0.173139
436796 -0.0808951 -0.0750147 -0.0673991 0.0736702 0.107777 -0.455162 0.103776 0.537668 0.797162 0.310376 0.306766 -0.247571 -0.424908 -0.0153727 -0.523132 0.154212 0.0526757 0.056042 -0.0819985 -0.129669 -0.17962 0.235881 0.23471 -0.159883 0.404141 -0.00331062 -0.221639 -0.261947 -0.447419 0.378027 0.00367862 0.00738325 -0.292478 -0.0926566 -0.461719 -0.446718 -0.246028 -0.785915 0.400465 -0.00863114 0.421295 -0.244226 0.430794 -0.279043 0.246715 0.0938247 0.0881737 0.646356 0.571913 -0.00285063 -0.164821 0.107098 0.00467201 0.278823 0.243361 -0.786241 -0.105044 0.0829448 0.117421 -0.222923 0.129132 0.130903 0.00841064 0.194049 -0.288322 -0.145289 0.353592 -0.252748 -0.25024 -0.741842 0.0433709 0.187637 -0.369988 -0.198958 0.286392 -0.770968 0.362505 -0.640127 0.4059 -0.301078 0.10258 -0.455476 0.22515 0.624701 -0.388334 -0.436802 0.167793 0.379699 0.468336 -0.315045 -0.154819 -0.412218 -0.111302 0.281525 0.100967 -0.86538 0.0436171 0.191629 -0.484866 0.132918
85324 0.0968851 -0.308726 0.34565 0.105621 0.0703045 -0.49607 -0.498438 -0.0952015 0.478058 -0.0269922 0.39958 -0.326022 0.333353 -0.560261 0.126338 0.169811 0.0664727 0.0685688 0.00968128 0.263852 0.018161 -0.157951 0.0458349 0.197426 0.182561 -0.365065 -0.292141 -0.500975 -0.458743 0.68426 0.139922 0.180286 -0.217169 0.00929593 -0.384794 -0.273322 -1.00441 -0.820327 0.471728 0.511696 -0.00270581 -0.724511 0.198735 -0.221845 0.402011 0.634456 -0.281502 -0.0398659 -0.216021 0.372547 -0.307211 0.340024 0.395184 0.705172 0.67398 -0.386735 -0.62694 0.20659 0.589469 0.677787 -0.300123 0.260574 -0.2761 0.651896 -0.040224 0.13756 0.197007 0.00680831 -0.109824 -0.0978327 0.396815 -0.563766 -0.0193672 -0.34135 0.702922 -0.284394 -0.0794899 -0.108152 -0.598069 -0.145417 0.36793 -0.341507 0.855942 -0.114685 0.0408472 -0.722538 0.627329 -0.0924925 -0.0605465 0.252885 0.0369927 -0.453836 -0.0586029 0.208657 -0.131488 -0.463899 0.173334 -0.123251 -0.78691 -0.213761
1113438 -0.344798 -0.0850452 -0.179855 0.0559584 0.0923883 -0.0586832 -0.680154 0.189651 0.0741774 -0.334296 0.363094 -0.310001 0.0344538 -0.635167 -0.000704788 -0.35983 -0.058846 0.186954 -0.602236 0.556002 0.140772 -0.637 0.0247839 0.470012 -0.197244 -0.447353 -0.605532 -0.333393 -0.256746 0.810458 0.617207 -0.0200733 -0.881505 0.0796269 -0.184636 -0.101988 -0.847369 -0.678035 -0.203133 -0.382404 -0.192508 0.153004 0.157373 -0.20776 0.130921 0.210465 0.00600547 0.487186 0.521103 0.314678 -0.346477 -0.0417105 1.01215 0.261481 0.602034 -0.480324 -0.492877 0.0510461 -0.636201 -0.463482 0.182084 -0.462546 -0.32196 0.477597 -0.248863 0.0839962 -0.468604 -0.0745998 0.229018 0.0878069 0.362145 -0.363905 -0.498919 -0.116033 0.964315 -0.382132 0.395345 -0.586292 0.334827 0.00705635 -0.0894406 -0.502313 0.0788772 -0.228636 -0.244767 0.400567 0.175766 0.240835 0.0418792 0.650261 0.098192 -0.236406 -0.451695 -0.226525 0.160317 -0.201307 0.125306 0.113452 -0.386992 0.229433
166825 0.445732 -1.00237 0.673913 0.422436 0.0944591 -0.848558 0.0389793 -0.43445 -0.212391 0.60593 -0.0443282 0.349107 -0.0247734 -0.210033 0.0964815 0.116979 -0.186054 0.306389 -1.30482 -0.291867 -0.271585 -0.769122 -0.0580704 -0.237571 0.607992 0.017075 0.00030621 -0.00502932 -0.980048 0.38815 0.231817 0.313665 -0.0996651 -0.891435 -0.192499 -0.136769 -0.36327 -0.0630119 0.265165 0.405786 -0.252926 -0.531836 -0.0100628 -0.217493 0.330823 0.247945 0.183909 0.227453 0.205041 -0.258882 0.178741 0.256155 0.129543 -0.115969 -0.287339 -0.357037 -0.581343 0.506076 -0.216962 0.731731 0.144793 0.32776 0.311511 0.708794 -0.307179 0.149936 0.754722 0.527881 0.0191805 -0.16177 0.700527 -0.723942 -0.357266 -0.215434 0.777427 -0.21923 -0.407737 -0.708038 -0.292714 -0.495424 0.202184 -0.278057 0.273958 0.1819 0.124479 -0.219528 0.176062 -0.749193 0.0397776 -0.133287 0.460741 -0.144873 0.263432 -0.543482 -0.027383 0.51597 0.186756 0.049826 0.248428 0.182635
28851 -0.14193 -0.00192412 0.2649 0.44377 0.315883 -0.473285 -0.263532 -0.071176 -0.20337 -0.171617 0.486025 0.499229 0.109102 -0.835469 0.201434 0.0858496 -0.127951 0.115634 -0.460275 0.251455 -0.10076 -0.322067 -0.228451 0.684065 0.197722 0.147415 -0.0831943 0.117259 -0.761061 0.892619 0.264005 -0.231084 -0.174376 0.107395 -0.472558 -0.42099 -0.334654 -0.22939 -0.658852 -0.338645 -0.100474 -0.220379 0.312245 0.18354 0.783003 0.434335 0.12047 0.294535 0.345758 0.12427 -0.186492 0.321518 0.216926 0.593356 -0.116877 0.0817856 -0.378841 0.141309 -0.92237 0.0973828 0.188187 0.152502 -0.262763 0.578353 -0.0914142 -0.151383 -0.643911 -0.593672 -0.364481 0.165204 0.3463 -0.330005 -0.225819 -0.155544 0.689662 -0.459895 0.269204 -0.0598362 0.723125 0.309981 -0.0456247 -0.912593 0.669684 -0.0811881 0.0504011 0.057271 0.504589 0.228495 0.00141814 0.424879 0.391232 0.0206418 -0.18228 -0.840598 -0.386227 -0.588113 0.198477 -0.369212 -0.0640884 -0.158889
63931 0.0839576 -0.835326 -0.222104 -0.269442 -0.258253 -0.724692 -0.318506 -0.274412 0.0988433 -0.0890391 0.507963 -0.469304 0.38902 0.039607 -0.30463 0.407757 -0.288527 -0.32513 0.227805 0.0606244 -0.280775 -0.181187 0.475953 0.216283 -0.00261626 0.375429 -0.789742 0.162145 -0.834939 0.0133475 0.202439 -0.0983572 0.316048 0.31596 -0.552917 -0.351608 -0.722727 -0.6242 0.168251 -0.703243 -0.80359 -0.546523 0.294434 0.19501 -0.208964 0.12652 -0.191104 0.37401 0.233079 0.220811 -0.462482 0.00978648 0.203366 0.69057 0.441297 -0.101491 0.272749 -0.0648044 -0.414586 0.29625 0.699713 0.514535 0.112107 1.0678 -0.67578 -0.0777396 0.670698 0.184785 0.024921 -0.0771817 0.730738 -0.815732 -0.325441 0.528557 0.90769 -0.0968052 0.707163 0.26673 0.890314 -0.592426 0.0379276 -0.0903052 -0.371946 0.347732 0.47346 0.117652 0.545729 0.00817823 0.302738 -1.13935 -0.00966962 -0.088869 -0.143536 -0.323199 0.517899 -0.193594 0.462625 0.195068 -0.679701 0.221586
93320 0.172642 0.210646 0.0858444 0.461086 -0.307248 -0.831547 -0.455511 -0.135494 0.444235 0.0748292 0.348524 -0.241108 0.0740332 0.160752 -0.150457 -0.0610298 -0.65813 -0.254783 -0.00933576 0.154006 -0.140734 0.0282085 0.514194 -0.166752 -0.0463259 0.276649 -0.512782 -0.203757 -0.7104 -0.227584 0.307859 -0.136216 0.685273 0.143277 -0.376893 -0.162113 -0.0959858 -1.15859 0.859018 -0.321193 0.190823 -0.235259 0.189735 0.0561915 0.203107 -0.0857932 -0.154458 0.353308 -0.0871817 0.420415 -0.120128 -0.174111 0.489553 0.744427 0.176789 -1.23064 -0.129542 -0.00635427 0.0396833 -0.120185 0.406694 -0.0798591 -0.00449404 0.5385 -0.449864 0.0541046 0.674768 0.38298 -0.761414 0.116631 0.420516 -0.471918 -0.792945 -0.21839 0.979693 -0.266657 0.378749 -0.149813 -0.172407 -0.585309 -0.224903 -0.125568 -0.149245 0.0750751 0.272192 -0.235212 -0.0426563 0.163397 0.840753 0.10977 0.141631 -0.268786 0.539387 -0.33459 0.591318 0.205235 -0.124201 -0.120655 -0.219726 -0.0672467
990075 -0.286938 0.189286 0.216235 -0.0550821 0.132333 -0.054899 -0.55218 -0.17029 0.255118 0.424261 -0.229334 -0.0695273 0.521843 0.195471 0.114536 -0.051273 -0.302873 -0.0125552 -0.00215851 -0.0897842 -0.129142 -0.0726267 -0.188029 -0.0498309 -0.28434 0.592387 -0.918342 0.108862 -0.638749 0.467376 0.640442 0.471361 0.125673 -0.328352 0.136135 -0.122344 -0.629594 -0.577509 0.474197 0.554218 -0.269946 -0.384566 -0.0427825 -1.02722 0.0900339 0.00441223 0.227427 0.486529 0.485621 -0.132539 0.0877661 0.060592 0.176366 -0.251265 -0.00118111 -0.460376 -0.250603 -0.0914555 0.532083 -0.253802 -0.100325 -0.22669 0.201153 0.293466 -0.411231 -0.471611 0.480207 0.191267 -0.345676 0.335191 0.817907 -0.158642 -0.501835 0.195333 0.620874 -0.391614 0.0810893 -0.479329 -0.185487 -0.751059 0.0228931 -0.0616723 0.288059 -0.0196488 0.435788 -0.102104 0.161699 0.011148 0.550295 -0.378167 0.0245184 -0.816539 0.127118 -0.448905 0.431415 -0.185991 0.157504 -0.0494629 0.13185 -0.162828
2440 0.173254 -1.23973 0.330675 -0.626271 -0.561996 -0.641089 -0.0486094 -0.587726 -0.139549 0.0138965 -0.0720812 -0.455897 -0.0134046 0.0788009 -0.429838 0.372947 0.0846825 0.0498192 0.425857 -0.258643 -0.33105 -0.0398383 0.385966 0.227147 -0.433259 0.645317 -0.851971 -0.0739174 -0.81767 0.032067 0.606789 0.381209 0.288777 0.408687 -0.402796 0.297177 -0.56206 -0.219101 0.556576 -0.43051 -0.967025 -0.32477 0.345718 0.210755 -0.104913 0.30021 -0.0362001 0.895706 -0.0771506 0.414221 -0.209272 0.139195 0.310002 0.565576 0.275484 -0.407015 0.1765 -0.243198 -0.598322 0.610242 0.757375 0.40836 0.153911 1.27974 -0.512721 0.194327 0.273677 0.0571384 0.325835 0.0120848 0.390892 -0.494964 -0.330728 0.505137 1.11007 0.0694128 0.0725831 0.201175 0.210228 -0.641289 0.107733 -0.535027 0.0945367 0.51579 0.305518 0.0899368 0.0874492 0.0794167 0.0826373 -0.543119 0.378633 0.255576 0.0629757 -0.607386 0.227366 -0.0378709 0.00978024 -0.13903 -0.174071 0.14558
644494 -0.731269 -0.617814 0.871948 0.65706 0.373877 -0.268158 -0.029255 -0.094445 0.343756 1.04002 0.0975552 0.303164 -0.184858 0.178319 -0.610002 -0.710618 -0.464279 0.285607 -1.34592 0.23223 -0.438465 -0.122387 -0.440897 0.222065 0.234726 0.659736 -0.450652 0.00661581 -0.841104 0.150355 0.592701 -0.13753 -0.425839 -0.0158294 -0.0988947 -0.346276 -0.574593 -0.185541 0.406859 0.236555 0.114456 -0.472044 0.186005 -0.848637 0.0987333 -0.0296504 0.078214 0.09345 0.237263 -0.340478 0.437491 1.28581 0.524395 -0.0252272 -0.0827035 -0.634868 -0.231063 0.147785 -0.119043 -0.0943314 0.353197 0.685427 -0.0393381 0.96752 -0.507557 -0.176121 0.501162 0.779854 -0.264215 -0.000962243 0.140796 0.385469 -0.161068 0.694849 0.783218 -0.494507 0.0447325 0.230625 -0.194748 -0.468781 -0.467715 0.119618 0.357044 -0.522704 0.0868805 0.384901 0.706582 0.0411422 0.119577 -0.089971 -0.0977316 -0.51896 0.0188477 0.334229 0.0753346 0.137083 0.256149 0.236476 -0.248473 0.177773
1130568 0.182868 -0.458067 0.566791 -0.134206 -0.185418 -0.252553 -0.616871 -0.197572 0.17437 0.0693192 0.415082 -0.594765 0.404458 -0.487954 -0.0350731 0.352178 0.0260445 0.221686 -0.173392 0.211759 -0.347775 -0.340371 -0.310659 0.156141 0.0929295 -0.117023 -0.426254 -0.360176 -0.210514 0.70412 -0.00690423 0.257347 -0.655705 -0.133392 -0.339744 -0.458809 -0.978395 -0.363531 0.0683913 0.401545 -0.0309386 -0.443985 -0.181072 -0.29188 0.488783 0.558385 -0.217672 0.131868 -0.0970573 0.359968 -0.0913526 0.163634 0.36427 0.563432 0.614559 0.0295262 -0.548129 0.606645 0.547884 0.270519 -0.310173 -0.0270842 -0.156084 0.708378 0.110851 0.0581467 0.223383 -0.00924444 0.164396 -0.156545 0.326156 -0.350574 0.227876 -0.323707 0.908054 -0.181671 -0.144215 -0.455278 -0.426254 -0.598092 0.362141 -0.216626 0.697355 -0.0691227 -0.202278 -0.241836 0.580805 -0.210327 -0.167199 0.0388597 -0.128826 -0.143307 -0.0982177 0.288395 0.0588365 -0.157512 0.338562 0.0774476 -0.568938 -0.175372
1109392 0.101549 0.272667 -0.301892 -0.0478356 -0.323079 -0.621072 -0.324118 -0.138457 0.400586 0.469892 0.793235 -0.0566945 0.102717 -0.214478 -0.345985 0.0395656 -0.0941953 -0.0192269 0.0672645 0.463751 -0.571086 0.000588427 0.466827 0.0621155 0.256034 0.271877 -0.242474 0.165653 -0.744084 0.110299 0.240952 -0.168245 0.146107 0.610727 -0.165924 -0.493434 -0.229296 -0.948563 0.379986 -0.35481 0.163423 -0.063884 -0.145709 0.0513407 -0.0914185 -0.256913 -0.189795 0.0429683 0.440964 0.383969 -0.291376 -0.109875 0.256916 0.550412 0.0201372 -1.17469 0.245589 0.511135 -0.387432 -0.663138 0.576345 0.345733 0.0843513 0.341266 -0.510719 -0.0513611 0.630068 -0.123427 -0.726564 -0.117751 0.513296 -0.339165 -0.636982 -0.165367 0.759544 -0.657782 0.742619 -0.0147735 0.611033 -0.269462 0.0928534 -0.468921 -0.234443 0.0114966 -0.055317 0.0549299 0.0599149 0.0345833 0.724301 -0.388212 -0.353621 -0.0638947 0.642611 -0.162542 0.647153 0.067084 0.332241 0.397264 -0.427696 -0.0241223
1130567 -0.282022 0.246944 -0.193222 0.348567 0.0941793 -0.656384 0.0585972 -0.374526 0.0667948 0.0560575 -0.285132 -0.432845 0.502159 -0.438874 -0.125742 0.230118 0.053834 0.562007 0.0530573 -0.209964 0.272075 -0.130959 -0.305197 -0.0459231 0.355459 -0.286401 -0.483222 -0.216696 -1.37772 -0.0923694 0.0765617 0.0125835 -0.334511 0.296038 -0.149104 -0.0983885 -0.806973 -1.28847 1.23446 0.204141 -0.222489 -0.286437 0.611937 -0.854564 0.501086 -0.189911 -0.0238317 -0.129936 -0.168895 0.0201559 -0.332402 0.0115627 0.7861 0.221131 0.164155 -0.864585 -0.100365 -0.334159 0.252377 0.577822 0.225883 0.231743 -0.363718 0.94127 -0.31373 0.278818 0.387797 0.241176 0.133896 0.191166 0.360467 0.277518 -0.902981 -0.153212 0.0843272 -0.498612 0.182966 -0.351143 0.271632 0.349896 -0.0457877 -0.211776 0.508953 0.0865858 0.145623 -0.601529 0.373186 0.172144 0.305768 0.468535 0.0787926 -0.491365 0.102495 0.279653 -0.0542195 -0.481432 0.0837252 -0.420197 -0.429578 -0.241441
1106630 -0.917242 -0.399308 0.277203 -0.383034 0.447607 -0.16852 -0.239364 -0.818322 0.26494 0.340546 0.614075 -0.553528 -0.382164 -0.344332 -0.000153396 0.167809 -0.415982 0.64609 -0.494238 -0.543255 -0.495915 0.606871 0.301908 0.182986 -0.0491539 -0.168793 -0.59298 0.136689 -0.898154 0.566838 0.521771 -0.13504 -0.270853 -0.0890475 -0.266304 -0.292093 -0.176948 -0.425141 0.52017 0.647113 -1.35563 -0.387441 -0.171675 0.1017 0.284905 0.534564 -0.0399151 0.573881 -0.0266552 0.276206 0.064621 0.583044 0.904776 0.11188 0.158317 -0.0570814 0.61119 -0.629555 -0.175599 -0.755879 0.717044 0.0880009 -0.270804 0.950004 0.454385 -0.273754 -0.109579 -0.216488 0.466542 0.0773967 0.390635 0.536708 -0.657265 0.0728496 0.540539 -0.586238 -0.236818 -0.221989 -0.0663468 -0.723295 -0.0235974 -0.612474 0.580349 0.882598 -0.36382 -0.171236 -0.0623285 0.23985 1.16425 0.373756 -0.0464362 -0.0673692 -0.285634 0.343927 0.110593 -0.676432 0.0436343 0.764544 -0.394232 -0.482897
1117184 0.576551 -0.791623 1.332 -0.111612 -0.0683799 -0.688785 -0.0786593 -0.803278 -0.0459993 0.534716 0.038721 -0.186652 0.740727 -0.205921 -0.264474 0.367315 -0.313662 0.0721066 0.0439354 -0.389203 0.0334961 -0.255219 -0.091419 -0.0300085 0.770145 0.594688 -0.0263581 0.705712 -0.888858 0.213834 0.388022 -0.31518 -0.429144 -0.194085 0.259281 -0.596502 -0.735799 -0.565787 0.113895 0.523545 0.279359 -0.345501 -0.0796089 -0.158276 1.07966 0.177151 0.206079 0.282337 -0.00418295 -0.308386 0.0840041 0.0580907 0.269633 0.0593753 -0.103049 0.0568753 0.0302965 -0.231642 0.12029 0.737969 -0.284727 -0.00938181 -0.0171026 0.999089 -0.206159 0.15633 0.997011 -0.537448 -0.00625519 -0.00939079 0.36544 -0.560784 -0.633054 0.245819 0.68845 0.220575 -0.351988 -0.651834 -0.153587 -0.6533 0.254748 -0.878537 0.703514 -0.0728577 -0.195517 -0.261199 0.0620734 0.0926342 0.313887 -0.0418737 0.0417948 0.332975 -0.733781 -0.409032 0.027983 0.371879 -0.080814 0.079762 0.575946 -0.272844
93923 -0.30134 -0.598295 0.448892 0.20416 -0.312197 -0.351056 0.595072 -0.848899 0.240258 -0.178262 0.48811 -0.430684 0.316196 -0.28661 -0.302107 0.105042 0.150257 0.0815974 0.00260316 -0.142289 -0.0185059 -0.014122 0.131817 -0.0661002 -0.631759 0.375134 -0.986055 0.399466 -0.734975 -0.2551 0.130499 -0.210775 0.190825 0.1964 -0.109058 -0.0742836 -0.721834 -0.336051 0.347594 -0.498852 -0.699425 -0.198977 0.342429 -0.651725 0.376615 -0.130923 0.115121 0.695184 -0.468772 0.0662064 0.0527427 -0.129839 0.508907 -0.144364 0.498538 -0.513735 0.25118 -0.220373 -0.42366 0.132361 0.713745 0.310719 0.135678 1.357 -0.276641 -0.0435022 0.708018 0.590942 0.385792 0.0355629 0.581705 0.41294 -0.952653 0.413178 0.453673 0.0306328 0.0852884 -0.166439 0.684427 -0.885743 -0.0061809 -0.29949 0.322823 0.329494 0.0971118 0.141876 0.22136 -0.00927032 0.269155 -0.483462 0.12746 0.316133 0.120281 -0.0640348 0.424235 -0.759187 0.0441436 -0.393391 -0.58736 0.0664671
294145 0.318333 -0.0238792 0.900037 0.441858 0.529354 -0.493214 -0.0965788 0.355411 -0.241813 0.428702 0.607242 -0.463866 0.65522 -0.374421 0.371868 0.677572 -0.782897 0.498747 0.0065436 0.0984242 0.429558 -0.110972 -0.171507 0.267206 -0.184295 0.187038 -0.0416279 -0.839746 -0.912238 0.459216 -0.381331 -0.164935 -0.244646 -0.103567 -0.35977 0.115798 -0.790952 -0.562025 0.340472 -0.61715 0.279589 -0.204281 -0.0279085 -0.352999 0.650321 0.445986 -0.361271 0.111194 0.357303 0.169574 -0.474863 -0.362331 0.843903 0.657994 0.476633 -0.186697 0.0473417 0.0193135 0.0842026 -0.188574 -0.264007 -0.227435 0.178472 0.905624 0.239103 0.322706 -0.049638 -0.710224 -0.54644 -0.322493 -0.41431 -0.259397 -0.524502 0.162183 0.971083 -0.0688051 0.0573705 -0.334319 0.834865 -0.591074 0.414144 -0.790987 0.621966 1.09126 -0.22834 -0.0857058 -0.236795 0.0107551 0.0811097 0.668067 -0.00218883 -0.214046 0.381746 -0.389888 0.621342 -0.093237 0.492782 0.126511 0.326628 0.46413
102939 0.363296 -0.276083 0.300848 0.305715 0.815558 0.485746 -0.13702 0.0241472 0.359021 0.710349 0.449211 0.129411 0.310311 -0.429112 0.00616608 -0.200256 0.460189 0.304204 -0.303676 0.115939 -0.123422 -0.565964 -0.114131 -0.0284924 0.211307 -0.296118 -0.422651 0.109615 -1.29439 0.111726 -0.390409 -0.445191 -0.573641 0.144426 0.774222 0.00691478 -0.546366 -0.442034 0.832623 0.724572 -0.342304 -0.622503 -0.533329 -0.146139 0.974355 0.547296 0.43396 0.359053 0.523633 -0.180619 0.535354 0.224437 0.961013 0.428537 0.288374 0.107993 -0.484988 0.023267 -0.0664233 0.291547 0.136399 0.708075 -0.0904706 0.683946 -0.414334 -0.194483 0.290417 -0.177318 -0.933994 0.0870613 0.0399114 -0.555826 -0.133484 -0.31611 0.633345 -0.738182 0.329128 -0.101754 0.228417 -0.853883 0.117393 -0.128526 -0.0377571 0.0759865 -0.240332 0.347853 0.519889 -0.394838 -0.11859 0.111961 0.0501245 -0.234432 0.369259 -0.111887 0.321857 0.811635 -0.172968 -0.100177 -0.485498 -0.0552311
102938 0.308854 -0.300325 0.255306 0.34825 0.834576 0.525526 -0.0808929 0.0253012 0.542797 0.727748 0.512828 0.157501 0.327694 -0.414446 -0.0285442 -0.159817 0.479977 0.31426 -0.286284 0.12799 -0.0930215 -0.553046 -0.0867464 -0.0596707 0.121894 -0.240847 -0.46187 0.11222 -1.3204 0.0805012 -0.45516 -0.408235 -0.491016 0.139723 0.729975 -0.0231372 -0.669075 -0.471933 0.818025 0.703542 -0.357406 -0.648935 -0.546116 -0.0534181 1.00018 0.514947 0.399878 0.41083 0.42841 -0.248986 0.549711 0.313354 0.966821 0.406472 0.352695 0.145566 -0.474075 0.00957032 -0.0807837 0.3373 0.259638 0.704059 -0.132788 0.774627 -0.516031 -0.0563511 0.2915 -0.104132 -0.98929 0.0927735 -0.0715759 -0.567044 -0.0840444 -0.260307 0.593236 -0.765371 0.275701 -0.0505384 0.228645 -0.94935 0.149168 -0.110103 -0.0770616 0.0140793 -0.263249 0.32069 0.543662 -0.377038 -0.0869211 0.0939404 0.0734951 -0.286474 0.422159 -0.135772 0.396973 0.823368 -0.229573 -0.0992628 -0.514067 0.0118138
16819 0.163575 -0.707019 0.592795 0.673898 -0.0507724 -0.103039 0.226118 -0.418617 0.0864694 0.999846 -0.211166 -0.190788 0.0317564 -0.730253 -0.586672 -0.587867 -0.577964 -0.236112 -1.1112 -0.177827 0.0700721 0.0893147 -0.321841 0.0932575 -0.12929 0.304232 -0.644908 -0.678948 -0.907306 -0.125482 0.112759 -0.732934 -0.571657 0.13903 0.126604 -0.141243 -0.364118 -0.138294 0.56088 0.28283 -0.433763 -0.644479 -0.0231362 -1.13344 0.573404 -0.282007 0.580082 -0.369823 0.66173 -0.209952 -0.121621 0.966803 0.71046 0.502757 -0.121847 -0.791739 -0.402446 -0.268612 -0.102822 -0.119821 0.709442 0.486638 0.150271 0.443344 -0.117611 -0.636097 0.0595816 0.141095 -0.500037 0.100599 0.209685 0.0837068 -0.483063 0.719499 0.815229 0.102104 0.465081 0.545554 0.769787 -0.869419 0.451963 0.066047 0.484217 0.488017 -0.248213 0.530751 0.00443212 0.151253 -0.44103 -0.0207486 -0.0192603 -0.541797 0.275542 0.288337 0.156277 0.179477 0.338197 0.0191223 -0.0439899 -0.386658
1107728 -0.311929 0.00464393 -0.145748 -0.124629 0.117989 -0.711304 0.0597986 -0.254656 0.214305 -0.593349 0.636992 0.21633 0.363893 -0.284545 -0.18352 -0.0935866 -0.0861882 0.0863617 -0.34626 -0.268748 -0.763757 0.475303 0.620168 0.0156854 -0.00804025 0.649662 -0.500178 0.733477 -1.30003 1.0766 0.667846 0.483336 -0.0279512 -0.299102 -0.974798 -0.246311 -0.579361 -0.211772 -0.34378 0.179752 -0.285429 -0.442123 -0.0888733 0.00710351 0.478299 -0.18392 -0.32932 0.6454 0.973856 -0.224553 -0.94513 0.290439 -0.28629 0.259458 -0.569835 -0.636554 0.719912 0.414011 -0.366844 -0.106527 0.490829 0.587051 -0.0389318 0.580123 -0.583797 0.174375 0.0268998 1.02327 0.180152 -0.0787217 0.0180331 -0.675543 -0.410036 -0.243709 1.08388 0.0551291 0.314975 -0.564689 0.677816 -0.0509317 0.270676 -0.311973 0.277232 -0.0775295 -0.667551 -0.517484 0.344452 -0.140028 -0.00534519 -0.260776 0.00235305 -0.342844 0.117477 -0.340942 0.160485 -0.532993 -0.096195 0.534757 -0.186977 0.197176
117328 -0.293743 -0.384294 0.509268 0.273498 0.949815 -0.727482 0.231964 0.429417 -0.205978 -0.0473332 0.325166 0.22389 0.0381417 0.362735 0.539178 -0.254276 0.154759 -0.208761 -0.463491 -0.439591 -0.18056 0.462401 -0.0873432 -0.0644668 -0.429515 0.389313 -0.218926 0.260365 -0.853253 0.473689 0.722609 0.00511885 -0.00508372 0.0306367 -0.631699 0.234195 -0.855381 -0.426048 0.498474 0.211601 -0.298401 -0.522574 -0.079157 -0.0622834 0.27888 0.234678 -0.348893 0.344792 0.398463 -0.352657 0.10531 0.404097 0.194802 0.886126 -0.740303 -0.475348 -0.184646 0.882777 0.21892 0.226618 0.0240698 0.766302 0.608897 0.566283 -0.40059 -0.653523 -0.476413 0.0157348 -0.371739 -0.0232342 0.73985 -0.638283 -0.195419 -0.194823 1.10265 -0.408141 0.252747 -0.601146 -0.0566918 -0.751265 0.0371054 0.197219 0.395718 0.173764 -0.517431 0.69913 0.99794 -0.0894424 -0.156393 0.272813 0.706771 -0.354063 0.566142 -0.50604 0.197844 -0.160799 0.0704869 0.383511 -0.275802 -0.0113586
1117219 -0.0161854 -0.694634 0.183849 -0.314581 0.0347224 -0.733296 0.0578424 -0.542629 0.522675 0.389638 0.523818 0.149703 0.357566 -0.820881 -0.0892019 0.55053 0.092424 0.457606 -0.145695 0.452209 -0.350518 -0.193113 -0.293141 0.0686998 0.157225 0.349108 -0.183539 -0.0222687 -0.25734 0.816875 0.146194 -0.260015 -0.597734 0.109339 -0.353323 -0.363974 -0.698323 0.412029 -0.0545187 0.77875 0.148279 -0.356151 -0.0387218 -0.436147 0.0908073 -0.100174 0.149877 0.444066 0.827928 -0.275125 -0.16281 0.201458 -0.296804 0.4106 -0.150209 -0.750107 0.159995 0.331634 -0.0822123 0.30371 -0.22402 0.476935 -0.144559 0.419711 -0.252809 -0.566493 0.459556 0.392985 -0.272544 -0.28521 -0.295873 -0.701347 -0.142168 0.122701 0.62715 -0.0891644 0.22821 0.0591093 0.408164 -0.402578 0.595277 -0.557572 0.308769 0.21281 0.0743558 -0.0638809 0.168701 -0.185165 0.123002 0.199451 0.0145746 -0.469327 0.392017 -0.0705745 0.924037 0.00885492 0.424315 0.128111 -0.379342 -0.318681
139738 0.0978655 0.264977 -0.097075 -0.234525 -0.362244 -0.657294 -0.0563764 -0.252841 0.523368 0.400067 0.348113 0.0133956 -0.0749014 -0.524324 -0.172067 0.285985 -0.0738689 0.130515 -0.151558 0.0782981 -0.281462 0.151379 0.00538092 -0.113003 0.492483 0.191939 -0.715758 -0.0781707 -0.519884 0.596954 0.284156 -0.0489435 -0.361165 0.292225 -0.254275 -0.594911 -0.395101 -0.360889 0.25085 0.53987 0.312871 -0.421192 0.128029 0.184667 0.568461 -0.115547 0.0159562 0.115081 0.588056 0.00801171 -0.194907 0.173617 0.0489917 0.500331 0.241782 -0.783563 0.0758945 0.580387 -0.186589 -0.0880801 0.135787 0.5164 -0.00636204 0.0331255 -0.155664 -0.107349 0.272089 -0.603491 -0.328699 -0.184896 0.145277 -0.0257968 -0.0583214 -0.375366 0.333941 -0.387404 0.36727 -0.292807 0.363474 -0.0742904 0.119006 -0.452596 0.546008 0.572321 -0.0225034 -0.362386 0.265758 0.288224 0.197953 -0.0477746 0.172345 -0.351318 0.356678 0.327329 0.101026 -0.607431 0.138137 -0.289127 -0.158404 -0.136936
753047 0.552724 -0.777081 0.538652 -0.797391 -0.504068 -0.465341 -0.312708 0.389791 0.276642 0.640206 0.55695 0.257577 0.152419 -0.675686 0.220381 0.478773 -0.503659 -0.39696 0.408562 0.078449 -0.434029 -0.675558 -0.186649 0.242467 0.354169 0.358417 -0.745111 -0.415531 -0.781353 0.898062 0.581851 0.0659564 -0.543706 0.509413 -0.180802 -0.271244 -0.714488 0.0844804 0.557333 1.29787 -0.186894 -0.806985 0.306741 -0.118189 0.387384 0.553342 0.154429 0.619741 0.507644 -0.0801727 -0.0389127 0.35736 0.391379 0.365817 0.369113 -0.383918 -0.253202 0.731689 0.00937109 1.3875 0.385777 0.230961 0.0852444 0.617051 -0.199516 -0.539016 0.751225 0.155306 0.413358 -0.17761 0.274078 -0.336571 0.0646714 -0.472487 0.500922 -0.355021 -0.237652 -0.668311 0.0719084 0.232065 0.301477 -0.724996 0.916193 -0.19156 -0.324421 -0.168371 0.429716 -0.271102 0.415019 0.0462152 -0.253346 -0.861343 0.786674 -0.107037 -0.272726 -0.547835 0.271069 -0.260783 -0.227643 -0.536089
79817 -0.116364 0.404379 -0.0363009 -0.12332 -0.109715 -0.296679 -0.0890877 -0.525824 0.0645473 0.374406 0.346309 -0.0622206 -0.0277813 -0.382715 -0.284306 0.426117 -0.759369 0.218773 -0.418291 -0.633753 -0.463571 0.430094 -0.796483 -0.0960807 -0.487093 0.223109 -0.578494 -0.309843 -1.01367 0.253738 -0.301837 0.633535 -0.178046 -0.532463 0.0658466 -0.313282 -0.64068 -0.41911 0.738528 -0.282176 -0.945382 -1.16953 -0.537102 0.0860303 0.298745 -0.582879 0.0310611 0.500144 -0.589394 0.110523 0.149095 -0.11737 0.018152 0.317004 0.0755774 -0.474535 -0.404049 0.342737 -0.319745 0.385394 0.713165 -0.169414 0.050362 0.551581 0.0229996 0.195693 -0.26953 0.168687 -0.0881154 -0.646738 -0.887487 0.281889 -0.690212 -0.158372 0.793483 0.198347 0.490255 -0.350416 0.492405 -0.626548 0.474773 -0.199586 0.112189 0.684956 0.354747 0.138786 0.468828 0.278939 0.0794815 0.413416 0.347187 -0.168087 1.04239 0.0321301 -0.210992 0.0574872 0.22005 0.136913 -0.0953327 -0.238906
646412 -0.158892 -0.470912 0.443029 0.1929 0.331846 -0.581261 -0.199786 -0.244165 0.0951404 0.580337 0.490413 -0.0492877 0.371416 -0.444441 -0.303868 0.231622 -0.376954 0.25194 -0.528434 -0.0794994 -0.321292 -0.174707 -0.317075 0.157097 -0.00758098 0.310692 -0.655789 0.163444 -1.33301 0.710036 0.356895 0.0948261 -0.456379 -0.150973 -0.262941 -0.43807 -1.01371 -0.741463 0.381406 -0.0456973 -0.155879 -0.808391 -0.0151641 -0.316937 0.637675 0.0257836 0.302291 0.404055 0.352902 -0.180705 -0.202782 0.316188 0.732697 0.314812 0.210114 -0.387759 -0.128178 0.21452 -0.341995 0.197229 0.468879 0.307672 0.0627963 0.969078 -0.367012 -0.0120207 0.274918 0.0267267 -0.191783 -0.198453 0.379287 -0.294569 -0.546293 -0.0544631 1.04519 -0.428907 0.171732 -0.381515 0.408307 -0.681273 0.15911 -0.601406 0.407212 0.288437 -0.260245 -0.0548642 0.450556 0.0076612 0.399828 0.114148 0.223945 -0.389149 0.288593 -0.308765 0.340812 -0.232786 0.303288 0.31459 -0.250462 -0.100191
6378 0.350347 0.404005 0.242955 1.12526 0.741017 -0.64572 0.021133 -0.346987 0.283621 -0.122969 0.00979167 -0.0837865 0.533182 -0.0319886 -0.0126685 -0.212641 -0.314376 0.539374 -0.350679 -0.150334 0.0413403 -0.140173 -0.00393181 -0.487076 -0.360592 0.432212 -0.547783 0.0535321 -0.864517 -0.405676 0.774455 0.18088 -0.0682369 -0.0748064 0.148307 -0.0743102 -0.670238 -0.265421 0.791338 -0.0631869 -0.0699336 -0.184734 0.111477 -0.580642 0.45898 0.0786148 0.339437 0.195703 -0.544545 0.140102 0.244431 -0.368219 0.804594 0.140607 0.510525 -0.833457 -0.368891 -0.152129 -0.230819 0.408222 0.428593 0.135134 0.624427 0.723757 -0.205789 0.365323 0.792856 0.515239 -0.276516 0.126519 0.207187 -0.473629 -1.18842 0.0154715 0.723664 -0.299865 -0.42378 -0.390665 -0.498315 -0.150166 0.210546 -0.986083 0.10478 -0.218052 0.492281 -0.720185 0.202121 0.00957139 0.568936 0.472385 0.0701997 -0.30303 -0.027011 -0.0754694 0.395834 0.0260423 -0.402022 -0.347402 -0.193328 0.0432655
787016 0.050612 -0.24956 0.213228 -0.121477 0.23663 -0.0350001 -0.278088 0.0405199 0.0201085 0.103036 0.319919 0.345444 -0.273325 -0.747626 0.104014 -0.348872 0.126318 0.347129 -0.115799 0.317727 -0.352385 -0.321034 -0.480601 0.42443 -0.0596094 -0.11548 0.0722634 0.208175 -1.06079 0.542784 0.013788 0.201732 -0.683656 0.251286 -0.0387256 0.254597 -0.720021 -0.320802 0.133572 -0.559767 0.0884001 -0.519964 0.160351 0.0679887 0.33607 0.440247 0.00727624 0.179072 0.307461 0.158061 -0.377286 0.348733 0.708689 0.348272 0.688176 -0.464357 -0.493197 -0.443691 -0.509423 -0.473413 0.20262 0.016202 -0.526367 0.927103 -0.3097 0.0716769 -0.269559 -0.388623 -0.466177 0.173648 0.476363 -0.20008 -0.153223 -0.058633 0.758418 -0.418683 0.218049 -0.244184 0.23237 0.156312 0.291274 -0.249214 0.397804 -0.157656 -0.126344 0.200055 0.0549283 -0.344453 0.0116342 0.226141 0.336938 -0.142182 0.217546 -0.679813 -0.379324 -0.785525 0.0386356 -0.639783 0.0752198 -0.0126168
1109957 -0.299405 -0.0492145 -0.136894 0.383648 -0.107506 -0.757863 -0.0431549 0.23406 -0.186865 -0.0168761 0.117106 -0.405422 0.0681973 -0.277823 0.168071 0.428438 -0.488758 0.383239 0.101568 -0.116082 0.157813 -0.0778555 -0.22855 0.164325 0.269393 0.164203 -0.738616 0.0255134 -1.10933 0.47671 0.052107 -0.0720785 0.0919731 -0.111849 -0.0244841 -0.176185 -0.735167 -0.968615 0.981227 0.363395 -0.148287 -0.50792 0.138621 -0.725576 0.294782 -0.179387 -0.166522 -0.166831 -0.484389 -0.40333 -0.0802405 0.312488 0.443299 0.411974 -0.0315455 -0.713954 -0.143762 -0.298808 -0.273232 0.398145 0.522623 0.429242 0.105759 0.488607 -0.361471 0.513366 0.313169 0.36394 0.110873 -0.0457412 -0.174552 -0.0323341 -0.509443 -0.3085 0.0529511 -0.421964 -0.188917 -0.213803 -0.36492 0.294793 -0.1821 -0.177166 -0.0421795 0.228947 0.120914 -1.04231 0.427117 -0.012153 0.169698 0.374529 0.56782 -0.472175 0.212833 0.0585437 0.21577 -0.183026 0.0215425 0.176405 -0.452539 -0.051041
300071 0.0697342 0.0191683 0.0901162 0.414255 0.0492516 -0.296516 -0.492987 -0.651151 0.0912329 0.826281 0.413171 0.688245 0.360847 -0.17953 0.182672 0.148905 -0.474559 0.0544457 -0.312289 -0.351042 0.221042 -0.244482 -0.293812 -0.391895 0.845251 0.60439 -0.46634 -0.179547 -0.825925 0.257988 0.42574 -0.157637 -0.133057 -0.190082 -0.349238 -0.822732 -0.650687 -0.24061 0.80469 0.188695 -0.33267 -1.00747 -0.161915 -0.331529 0.227733 -0.473274 0.803532 0.112155 0.958496 0.10707 -0.708965 0.487063 -0.0887387 0.413695 0.338841 0.0385839 -0.11696 0.270414 -0.000541645 0.659349 0.377583 -0.142605 -0.246089 -0.459477 -0.221911 -0.185702 0.158047 -0.573075 -0.590473 -0.473895 -0.0133145 0.260817 -0.0328099 0.115523 1.41204 -0.331555 0.437421 -0.52528 0.563687 0.392488 0.170378 -0.253564 0.685735 0.794513 -0.131979 0.208077 0.691914 0.629764 0.201342 -0.0530401 -0.230829 -0.0453266 0.483944 0.111323 0.166723 -0.517176 0.515942 0.0837761 0.288222 -0.171363
1131360 0.578132 -0.372813 -0.362008 -0.156062 0.459082 0.106937 -0.638363 0.336703 0.129355 0.390274 0.070162 -0.317601 0.0435564 -0.636848 0.0350053 -0.467139 -0.424248 0.303068 -0.129627 0.45085 -0.337458 0.206913 -0.389889 0.395767 -0.375914 -0.21048 0.248043 0.579152 -0.798433 0.714565 0.250481 0.05183 -0.787199 -0.293747 0.0245869 -0.0155182 -0.253469 -0.727825 -0.0760865 -0.315645 -0.101326 -0.484444 -0.291676 -0.00431254 0.69634 -0.0233 0.660326 0.565324 0.337785 -0.442851 0.0326946 0.197899 0.913067 0.350224 -0.18482 0.247492 0.105243 -0.0101443 -0.735954 -0.196 0.157237 -0.238762 -0.548065 0.671986 -0.0911641 -0.0398451 0.049654 0.347219 -0.315441 0.192071 0.234484 -0.312345 -0.227043 0.012202 0.721243 -0.402902 0.598249 -0.24303 0.463249 0.549039 0.231712 -0.280002 0.209117 -0.197581 -0.145095 -0.281234 0.205214 0.317242 0.0428684 -0.0650928 0.452543 -0.51493 -0.0354912 -0.518986 -0.454174 -0.194192 0.111134 -0.277458 -0.351651 -0.487579
87363 -0.146628 0.149628 0.279272 0.376814 0.597892 -0.516221 -0.0250069 -0.228672 0.0613899 0.0967927 -0.194485 0.178751 0.462691 -0.555288 0.100968 -0.219386 0.167622 -0.533088 -0.135738 0.377807 -0.0608495 -0.480762 0.0272773 0.440977 0.171273 -0.378186 -0.22713 -0.0522545 -0.788126 0.169713 0.292079 0.442386 0.0221232 0.631838 -0.615027 -0.222672 -0.887692 -0.839398 0.038935 -0.0948584 0.295151 -1.03545 0.572394 -0.12397 0.135006 0.60314 -0.444871 -0.225056 0.500154 0.12073 -0.706485 0.0734697 0.52984 0.517476 0.13804 -0.452049 -0.334687 0.0289077 -0.170291 1.02923 0.0812541 0.697753 -0.142907 0.699197 -0.743175 -0.0670509 0.309244 -0.0172967 -0.219615 0.0546155 0.390751 -0.35763 -0.489511 -0.482788 0.641201 -0.147088 0.255363 0.398145 -0.307227 -0.00306992 0.091509 -0.253483 0.342807 0.0288891 -0.189529 -0.523359 0.263734 -0.0564566 0.39216 0.437804 0.410846 -0.9816 0.415405 -0.588177 -0.25229 -0.5297 0.0364181 -0.381012 -0.750919 0.00691101
1116922 0.0249184 -0.379541 -0.147638 -0.152626 0.0523758 -0.530622 -0.34948 -0.210052 0.108066 0.308709 0.189493 -0.263547 0.291908 -0.159642 -0.482039 0.332004 -0.647984 -0.444679 -0.0346471 -0.0289452 0.0567059 -0.15978 0.120862 0.503629 0.145364 0.261597 -0.642109 0.427217 -0.724836 0.41909 -0.110253 -0.0622901 0.147189 0.18482 -0.693173 -0.447099 -0.98583 -0.149299 -0.195298 -0.432158 -1.02208 -0.71336 0.232384 0.339532 0.0759751 -0.392678 -0.0794218 0.186068 0.218848 -0.321343 0.00132521 0.170943 -0.0277808 0.292217 0.193918 0.00351193 -0.0571474 0.433406 -0.297323 0.286712 0.531681 0.378406 0.304208 0.719644 -0.770946 -0.149529 0.633941 -0.0110399 0.223154 0.0233442 0.457074 -0.708165 -0.406964 0.324064 0.642852 -0.232769 0.214002 -0.0446323 0.817634 -0.684323 0.0151435 -0.144396 -0.530578 0.209146 0.227488 0.206188 0.88151 0.0307139 0.547477 -1.02864 -0.103074 -0.188813 -0.565994 -0.525675 0.115326 -0.17144 0.8034 -0.0183033 -0.486628 0.16416
20526 -0.232952 -0.10559 -0.224131 -0.11243 -0.104482 -0.512734 0.146972 0.00656596 -0.0517966 0.123902 0.228808 -0.321668 0.610008 -0.606223 0.0311518 0.448201 -0.143024 0.842403 0.299026 -0.273291 0.0761662 0.0413208 -0.450245 0.102497 0.170207 -0.0119478 -0.387379 0.104943 -1.57522 0.0550714 -0.0590001 -0.280816 -0.307503 0.0920189 -0.0159814 -0.523205 -0.998797 -1.36628 1.47461 0.365529 -0.32289 -0.512352 0.00819516 -0.673968 0.55565 -0.247093 -0.0970414 -0.580121 -0.374027 -0.408228 -0.293947 0.140919 0.986218 0.290921 0.268586 -0.432957 -0.0965065 -0.411207 0.453853 0.509028 0.555752 0.293469 -0.317664 0.8989 -0.336039 0.61356 0.321937 0.227987 0.277171 0.401269 0.257999 -0.0552117 -0.62722 0.0349562 0.151106 -0.260513 0.366037 -0.321636 -0.129537 0.248422 0.115077 0.119116 0.472002 -0.0373684 0.206725 -0.887162 0.310352 -0.200711 -0.0692457 0.154986 0.428082 -0.224089 0.244242 0.358805 0.210923 0.0288932 0.228725 0.099187 -0.0728034 -0.297973
20528 -0.226801 -0.0376991 0.0239758 -0.179397 -0.400038 -0.292948 0.085017 0.0119861 0.712007 0.0683835 0.431883 0.275246 0.262503 -1.07951 -0.623288 0.626322 -0.430081 0.553136 0.501219 0.162424 -0.217205 0.175114 -0.216739 0.0965781 0.195596 0.713326 -0.434658 0.229945 -0.849696 0.181744 0.163257 -0.464111 -0.264676 0.125595 0.235273 -0.791261 -0.977689 -0.656174 1.66764 0.400062 -0.0620238 -0.0562632 -0.787132 0.0786456 0.500868 -0.0608947 -0.406639 -0.185074 -0.182422 -0.118166 -0.269506 0.144269 0.849797 0.25449 0.548806 -0.963119 0.0703097 -0.114173 0.979158 -0.351044 0.386677 0.0347204 -0.214057 0.615449 -0.343699 0.45167 0.621789 -0.503635 0.307106 0.596942 0.0463645 -0.134816 -0.50522 -0.12276 0.35568 -0.213817 0.311239 -0.523023 -0.218445 -0.419791 0.0426022 -0.230084 0.703772 -0.0999975 -0.0516711 -0.354949 0.102312 0.336406 0.678464 -0.252294 0.118395 0.175835 0.643836 0.448219 0.441968 -0.253349 0.165448 0.0712625 -0.0558325 -0.478544
1138755 0.0631693 0.0174139 0.833152 -0.294663 0.382592 -0.291466 0.275597 -0.0578899 -0.238134 0.0414468 0.0225002 0.252075 0.444681 -0.272972 -0.365094 0.234864 -0.330778 0.319575 0.0399694 0.239523 0.138811 0.187301 0.0568664 -0.168173 -0.219925 0.269382 -0.125049 0.108386 -0.664733 0.550991 0.372248 -0.027587 -0.599456 -0.367489 -0.461707 0.113217 -1.17883 -0.250225 -0.271578 -0.0586926 -0.326176 -0.634594 0.0831163 -0.549488 0.162741 0.324237 -0.0997058 0.794251 0.281241 -0.370921 -0.0570355 0.0287131 0.557533 0.0870558 -0.362739 -0.0849167 -0.0301412 0.293852 -0.0643581 -0.488663 0.346353 0.284823 0.47785 0.498964 -0.136669 0.348969 0.0164843 0.0742426 -0.421512 -0.279055 -0.017004 -0.0620471 0.0892662 0.123798 0.637488 -0.28253 0.0197876 -0.139513 0.383752 -0.522721 -0.149329 -0.341481 0.0482514 0.0422924 -0.508615 -0.401039 -0.170218 0.321237 0.549934 -0.12734 -0.189492 -0.47385 0.242752 -0.430748 -0.0105556 -0.117914 0.130976 0.483555 0.00821461 0.909233
54550 -0.0114881 -0.132089 0.544507 0.569003 0.570016 -0.911485 -0.0614741 -0.407607 -0.179562 0.374735 0.212296 -0.394064 0.332727 0.142806 0.286697 0.0598449 -0.397226 0.434466 -0.527035 0.378016 -0.0350584 -0.334031 -0.228592 -0.0647525 -0.377179 0.531486 -0.25311 -0.181781 -0.543949 -0.289254 0.701246 0.456066 -0.189988 0.000162031 0.34869 -0.268784 -0.609573 -0.205128 0.0669961 -0.296979 0.103059 -0.708451 0.0375287 -0.0311054 0.608047 0.572251 0.58467 0.224809 -0.217832 0.414246 0.0867455 -0.284864 0.460983 0.43054 0.097358 0.0414314 -0.579554 0.0410743 -0.362732 0.744527 0.331627 0.0244104 0.758616 1.20796 0.0297789 0.386477 0.398537 0.539914 -0.315986 0.038875 -0.107105 -0.354857 -0.526152 0.273105 0.966488 -0.053591 -0.402618 -0.579687 -0.00804208 -0.715674 -0.121222 -0.57323 0.124132 -0.308788 0.255476 -0.304538 0.0698195 0.0418717 0.0544992 0.755189 0.0800564 0.124879 0.176237 -0.0256162 0.444573 0.737391 -0.0611854 -0.250361 -0.15367 0.0414823
22874 0.360072 0.00757679 0.831618 0.147223 0.0879567 -0.589454 -0.284983 -0.218051 -0.450867 0.812492 0.29491 0.12466 -0.266953 -0.3935 -0.0804946 -0.224778 0.00937248 -0.0435192 -0.38412 0.00680959 -0.200072 0.164146 0.221628 -0.0843008 0.465526 0.462922 -0.731949 0.0717238 -0.573227 -0.00939721 0.618282 0.0425641 -0.337112 -0.751924 -0.0669302 0.068115 -0.775467 0.00470963 0.00880088 0.0748658 0.241358 -0.658714 -0.388889 0.200272 0.814968 0.330488 0.589935 0.117587 0.385115 -0.125199 0.12995 -0.020481 0.322496 0.778444 -0.47334 -0.440086 -0.424362 0.514468 -0.259268 0.476919 -0.21926 -0.0902438 0.565886 0.80922 0.153252 -0.310773 0.142045 0.51625 -0.414739 0.100007 -0.285405 -0.518694 -0.601168 -0.131418 1.02392 -0.658773 -0.107252 -0.847606 -0.209996 -0.75054 -0.0319986 -0.794812 0.109584 -0.147494 -0.37173 -0.153755 -0.221375 -0.084905 0.284703 0.634213 -0.265597 -0.524409 -0.744102 -0.552465 0.446656 0.417912 0.0768333 -0.142802 0.289144 -0.18487
22875 0.303811 0.0191229 0.742784 0.279298 -0.027745 -0.895677 0.0702921 -0.578166 -0.110273 0.948765 0.215802 -0.313513 -0.0167599 -0.0866736 -0.392445 -0.0836318 -0.0902532 -0.00601957 -0.0196053 0.19694 -0.037002 0.2527 0.26795 -0.113735 0.381463 0.362906 -0.744606 -0.0603374 -0.505852 -0.403494 0.47027 0.112796 0.0926498 -0.210781 0.103834 -0.191745 -0.503649 -0.737859 0.17083 0.133391 0.656734 -0.446724 -0.0204081 0.158311 0.902198 0.18029 0.427887 0.000170339 0.141587 0.152577 0.101774 -0.178257 0.27168 0.711662 -0.452726 -0.856458 -0.267487 0.432172 -0.426987 0.660001 0.0232258 0.11075 0.339907 1.00771 0.404634 0.0427241 0.430527 0.123485 -0.640481 0.223823 0.145185 -0.0256367 -0.728659 -0.255185 0.785012 -0.295541 -0.0933573 -0.595234 -0.499501 -0.754812 -0.418739 -0.673132 0.168507 -0.220951 -0.202503 -0.199463 -0.305007 0.00809704 0.733843 0.675018 -0.297505 -0.173919 -0.508457 -0.332276 0.212258 0.394287 0.105085 -0.233307 -0.103934 -0.0680681
22876 0.307878 -0.00173994 0.869361 0.144651 -0.0605434 -0.646724 -0.304065 -0.151514 -0.417502 1.04478 0.16738 -0.132313 -0.064238 -0.229188 -0.339362 -0.229586 -0.0437244 0.100479 -0.247076 -0.0107896 -0.17737 0.286069 0.275026 -0.0167413 0.632481 0.32306 -1.05743 -0.0462956 -0.580112 -0.237423 0.544864 0.119608 -0.0848715 -0.655541 0.0763353 -0.0393165 -0.734697 -0.315583 0.118908 0.130076 0.47022 -0.647309 -0.183979 0.260207 0.944418 0.246289 0.677409 0.104572 0.393496 -0.076443 0.0716739 -0.0134087 0.267748 0.924784 -0.544641 -0.793866 -0.356604 0.614461 -0.422097 0.429409 -0.14094 -0.0253708 0.666079 0.9778 0.311291 -0.173114 0.160305 0.502496 -0.500935 0.133833 -0.208846 -0.131394 -0.790333 -0.334091 0.808382 -0.83105 -0.0924152 -0.813716 -0.174852 -0.707216 -0.138353 -0.649105 -0.122725 -0.147797 -0.43006 -0.115686 -0.20061 0.0378977 0.681479 0.797012 -0.431701 -0.489221 -1.05633 -0.409626 0.400901 0.516146 0.126036 -0.20939 0.151649 -0.167623
293285 -0.137832 0.262928 0.0446799 0.44784 -0.20546 -0.670579 0.0614612 -0.0482171 0.57867 0.136387 -0.0573372 -0.289158 0.409075 -0.410259 -0.161832 0.382413 0.307537 0.265452 0.145799 -0.0446657 0.344564 -0.355916 -0.0333372 -0.0355479 0.328229 0.066153 -0.371001 -0.372701 -0.846842 0.168199 0.366543 -0.356162 -0.596481 0.179834 0.0272537 -0.0600408 -0.886871 -1.04642 0.933025 0.140197 0.020273 -0.0601502 0.552351 -0.694102 0.316764 -0.103667 -0.094136 -0.0110027 -0.136877 0.0204596 -0.0924523 0.180565 0.590925 0.264585 0.213359 -0.956653 0.0571422 -0.177097 0.282921 0.280583 0.199255 0.335446 -0.306641 0.904926 -0.119272 0.227018 0.681079 0.143712 -0.156692 0.315904 0.342604 0.00921946 -0.698778 -0.156608 0.105027 -0.236007 0.296802 -0.166608 0.16952 0.0594992 -0.0249503 -0.35952 0.720096 0.158972 -0.040808 -0.346597 0.265486 0.431517 0.656571 0.4733 0.0462291 -0.654861 0.0429804 0.221637 0.380747 -0.617172 0.106686 -0.323167 -0.466429 -0.0253499
13654 0.123141 -0.252414 0.829189 -0.386732 0.358104 -0.571716 -0.441735 -0.107015 -0.798884 1.0328 0.870425 0.255472 0.263238 -0.299857 -0.102238 -0.00253609 0.0554051 0.387276 -0.467782 -0.110047 0.0745299 0.100823 -0.124689 0.44971 -0.141429 -0.0890304 -0.829701 0.0830726 -0.939736 0.851668 0.649444 0.137916 -0.572856 0.156994 0.318761 0.106538 -1.12097 -0.448603 0.795349 -0.579891 -0.824645 -0.637437 -0.186812 -0.537576 0.865736 -0.628139 0.294611 0.175616 0.259505 0.203658 0.476599 0.64806 0.231162 -0.239864 0.799274 -0.0240027 0.0317885 0.651948 -0.0327075 -0.160929 -0.444114 0.017538 0.155831 0.135272 0.165965 0.527166 0.121623 -0.233546 -0.340774 -0.537665 0.778005 0.432506 -0.737158 0.301208 1.06686 -0.713552 -0.530536 0.226609 0.161672 -0.536009 0.873561 0.0629318 -0.0251629 -0.0226393 -0.296939 -0.115686 0.167685 0.223899 -0.102463 0.313697 -0.59034 -0.407959 0.361541 -0.244442 0.106775 -0.292202 -0.128806 0.0979746 0.169852 -0.182213
197452 -0.325137 -0.235916 -0.125649 -0.619836 -0.445344 -0.604802 0.217474 0.24577 -0.172021 0.366845 0.917131 -0.177272 -0.427474 -0.783269 -0.722965 0.115411 -0.814147 0.970511 -0.228763 0.324777 -0.550612 0.426141 -0.0850909 -0.197714 -0.142333 0.262806 -0.357574 0.432913 -1.19516 -0.0551618 -0.0897651 -0.0656001 -0.167793 0.5846 -0.183325 -1.10389 -0.151647 -0.823884 0.716005 -0.179343 -0.17549 -0.305754 -0.627548 -0.340481 0.343668 -0.0899798 -0.233718 0.178843 -0.0807383 0.195683 0.272956 0.0983205 0.186639 0.607338 -0.215136 -0.77797 0.0497967 -0.0894261 0.511056 -0.398312 0.831053 0.0685215 -0.024056 0.902065 0.261124 -0.0951328 0.285816 -0.092401 0.523404 -0.133201 0.235241 0.407288 -0.26836 0.25278 0.758061 -0.53969 0.107897 -0.739711 0.142723 -0.376443 -0.217377 -0.176615 0.24489 -0.130308 -0.228978 -0.101956 0.125988 -0.189991 0.569627 -0.659018 0.119547 0.397476 0.567806 0.540022 0.312173 0.0248472 0.482019 0.596029 -0.43964 -0.100023
50354 -0.053051 -0.699095 0.135392 -0.0601425 -0.298986 -0.331606 0.0971022 0.192815 -0.104615 0.908633 0.0766101 0.0609974 0.299205 -0.0706144 0.0184817 0.0543014 -0.24444 -0.183457 0.0993966 0.370287 -0.180715 -0.370154 -0.333421 -0.0758774 -0.250771 0.534907 -0.604327 -0.182507 -1.20337 0.262823 -0.0493824 0.00729979 -0.592851 -0.0626462 0.448695 -0.207785 -0.684655 0.0179095 0.567163 -0.403833 0.00163622 -0.370384 0.0877614 -0.233586 0.240953 0.352295 0.500716 0.511 0.186611 0.356869 0.447112 0.43609 0.729822 0.379627 0.390902 0.0422654 -0.887358 0.374589 -0.604732 0.791158 0.470276 -0.238794 -0.0316977 0.987321 -0.0977612 -0.642417 0.948946 -0.480485 0.39652 -0.550246 0.552761 -0.370461 0.119654 0.119761 0.0388635 -0.908089 -0.331827 -0.575494 0.314007 -0.506437 -0.407159 -0.602005 0.0227936 -0.583229 -0.421995 0.440334 0.633889 -0.100263 1.02265 0.0837378 0.0250924 -0.46191 0.943842 -0.887341 -0.105811 -0.527688 0.13333 0.0391881 -0.248668 0.158107
1153275 -0.459121 0.0891459 -0.0915029 -0.416602 0.192699 -0.122762 0.267054 -0.213249 0.197804 0.424374 0.376604 -0.270506 -0.386277 -0.441392 -0.553823 0.173551 -0.346641 -0.0473728 -0.444926 -0.171702 -0.621983 0.257588 -0.643724 0.0066166 -0.461258 -0.00468141 -0.449118 -0.282269 -1.02779 0.281679 -0.424938 0.55092 -0.207204 -0.233947 -0.032662 -0.72194 -0.565345 -0.416609 -0.287893 -0.235659 -0.962508 -1.05611 -0.53494 0.433862 0.373279 -0.446876 0.109614 0.491591 -0.430761 -0.428939 0.632782 0.192033 -0.158471 0.36542 -0.156228 -0.110794 -0.259354 0.519747 -0.496655 0.500385 0.856914 -0.153534 -0.10563 0.684923 -0.293751 0.21502 -0.21614 0.0773254 0.00775958 -0.563474 -0.758118 0.0445994 -0.26252 -0.0421248 1.01811 -0.233117 -0.0162223 -0.72323 0.422622 -1.12607 0.353987 0.0422224 0.0885357 0.474259 -0.275883 -0.156266 0.279287 -0.0729433 0.188145 -0.133616 0.135934 -0.0866378 0.641262 -0.162648 -0.375665 0.0223305 0.246514 0.193507 -0.264983 -0.188339
219239 -0.433141 -0.707304 0.407923 0.165942 0.224754 0.296116 0.124058 0.236112 0.628084 0.238242 0.551177 -0.0219739 0.537964 -0.596465 -0.108559 0.760383 0.128355 0.815001 -0.1555 -0.208388 0.250939 0.0562451 -0.18807 -0.383722 -0.849314 -0.0157659 -0.820926 0.0604347 -0.728267 1.21237 -0.427193 0.0890434 -0.188892 -0.64925 -0.117542 0.0383405 -0.504287 -0.0886285 -0.134017 -0.14236 -0.0237853 -0.504571 -0.55562 0.182361 0.790361 -0.146664 -0.46 0.142559 -0.181657 -0.423873 0.00374968 0.25929 0.455106 0.0669095 0.643972 0.0354422 -0.663972 0.220202 -0.298667 -0.0152265 0.589595 0.0623293 -0.191461 0.799223 -0.653701 0.247006 0.130478 0.0667363 -0.102418 -0.33781 -0.238509 0.0121146 -0.0296524 0.402485 0.53029 0.178599 0.137294 -0.297408 0.180291 -0.7295 -0.0781769 -0.747187 0.53233 -0.364883 -0.694737 0.459708 0.109134 0.316011 0.225897 0.204115 0.41033 -0.17174 0.845849 -0.0153771 0.28762 -0.193343 -0.027005 0.263015 0.0691174 0.557466
1121254 0.114527 0.115514 0.289344 0.155405 0.145131 -0.212805 -0.594557 -0.60307 -0.398854 0.809074 0.786929 0.554531 0.356164 -0.699134 -0.100963 0.137829 -0.595834 0.148815 -0.449701 -0.301812 0.201547 0.156724 -0.203305 -0.153236 0.294233 0.201961 -0.543778 -0.0467743 -0.711922 0.489863 0.0301292 0.227948 -0.141566 0.0392896 -0.410572 -0.615404 -0.729373 0.155367 0.596446 0.275498 -0.265621 -0.770876 -0.243489 -0.0147448 0.109154 -0.0875556 0.692273 -0.148365 0.607806 -0.0409701 -0.816225 0.0216823 0.312995 0.259093 0.299504 -0.0795515 -0.438219 0.574676 -0.14477 0.437836 0.542986 0.314178 -0.136398 -0.344875 -0.269732 -0.167228 -0.0913103 -0.472915 -0.423326 -0.771187 -0.317673 0.048484 0.142781 0.0915029 0.885791 0.198343 0.320904 -0.0927182 0.884734 0.00830303 0.362328 -0.54094 0.798903 0.707524 -0.039714 0.550186 0.725874 0.388641 0.149673 0.189852 -0.00601737 -0.0423433 0.560356 0.267676 -0.28272 -0.190965 0.627799 0.155035 0.078914 -0.319477
1131565 0.0819363 0.00198088 0.419148 -0.319975 0.0264939 0.106401 -0.539271 -0.0747194 0.0761276 0.218232 -0.328291 -0.270085 0.406688 -0.340792 -0.252582 0.344564 -0.0291731 -0.197874 -0.711339 -0.0144412 -0.313889 -0.691341 -0.116783 0.825816 0.456911 -0.478742 -0.1575 0.127209 -0.57486 0.766103 0.63993 0.653491 -1.01612 0.607425 -0.156825 -0.305021 -0.601921 -0.378099 -0.164229 -0.755284 -0.60194 -0.393449 0.0137017 -0.465916 0.275946 0.369617 -0.0235352 -0.101802 0.529375 -0.0952078 -0.0787236 -0.294601 1.17825 0.0419731 -0.0461613 -0.338223 -0.0614932 0.567374 0.228408 0.458223 0.120858 0.107048 -0.317072 0.068726 -0.0819797 -0.083188 0.333768 0.192752 -0.18864 -0.184088 -0.105361 -0.137134 -0.597971 -0.593587 0.708326 -0.48675 0.460605 -0.00983786 0.0488015 -0.31845 0.569287 -0.27979 -0.277808 0.297208 -0.764931 0.140923 0.14498 -0.00584645 0.0929862 -0.0300346 0.104778 -0.827141 0.0810668 -0.636259 0.290025 -0.114578 0.231781 0.221545 -0.651125 -0.593948
152731 0.0761866 -0.064318 -0.193793 -0.167101 -0.415284 -0.843366 -0.386291 0.153151 0.32512 0.452594 0.886641 -0.0415957 -0.0523286 -0.185266 -0.328994 -0.04433 -0.370273 0.111682 -0.0608646 0.380467 -0.626962 -0.05915 0.605022 -0.0355305 0.218858 0.237529 -0.138035 0.0993498 -1.0003 0.0478961 0.105076 -0.313466 0.187019 0.603742 -0.335869 -0.526636 -0.026865 -1.15586 0.503593 -0.550707 0.0141364 -0.129441 -0.158874 0.0210216 -0.101076 -0.171952 -0.32303 0.174975 0.345098 0.413471 -0.16004 0.166336 0.0997404 0.763405 -0.0418781 -1.17718 0.210013 0.363964 -0.17565 -0.598152 0.683056 0.201468 0.0923587 0.466609 -0.517942 -0.149215 0.753061 0.111846 -0.458772 -0.244976 0.581118 -0.39522 -0.560935 -0.00303743 0.889293 -0.709565 0.542548 -0.0996717 0.647741 -0.297896 0.201508 -0.488354 -0.200388 -0.185018 -0.0432305 0.141694 0.0847573 -0.0936632 0.686343 -0.51067 -0.247119 -0.120114 0.7251 -0.188751 0.717915 0.244473 0.272486 0.558786 -0.436003 -0.0268219
1117501 0.252465 0.307995 0.240432 0.312347 0.386729 -0.577786 -0.0829823 0.291456 0.3485 0.67681 0.580468 -0.0174157 -0.0297415 -0.372184 -0.500677 0.0684131 -0.133171 0.385422 -0.467058 -0.60516 -0.700535 -0.312076 0.512066 0.016719 0.299971 0.379889 -0.456132 -0.630337 -0.325449 0.433955 0.15972 -0.0546226 -0.663142 0.0296902 -0.210609 0.196138 -0.647296 -0.389683 0.426115 0.245737 -0.307506 -0.9832 -0.137759 -0.341073 0.226735 0.270655 -0.0703141 0.459558 0.86207 0.191153 -0.875003 -0.175339 0.107494 -0.175255 0.318398 -0.160225 -0.128238 0.564911 0.164677 -0.273161 0.0107766 0.384632 0.209597 0.201158 -0.34417 -0.27492 0.136519 0.160495 0.125873 -0.839069 0.0221896 -0.198988 -0.221226 -0.290863 0.490244 0.174634 0.258412 -0.444509 0.526176 -0.789318 0.364062 -0.202821 0.0728196 0.602764 0.0669474 0.61069 0.290206 0.18495 0.206102 0.446312 -0.157297 -0.214067 0.312016 -0.109629 0.326304 0.106111 0.634242 0.776373 -0.0796481 -0.830202
179180 -0.0743907 0.167111 0.221401 0.480408 0.264302 -0.326902 0.135394 -0.396819 0.759191 1.03776 0.636099 0.209373 -0.487909 0.00477164 -0.47254 0.0714841 0.292154 -0.54079 -0.545497 0.215008 -0.731865 -0.0111811 -0.0691473 -0.465494 0.69856 0.546006 0.402006 0.109071 -0.810353 0.0558869 0.219348 -0.219817 -0.312656 -0.119153 -0.122871 0.184286 -0.603621 -0.995678 0.420267 -0.129698 0.755536 -0.550351 0.119342 -0.295544 0.294857 0.0674746 0.651455 0.223177 0.466707 0.0477676 -0.0520947 0.601951 0.397397 -0.247176 -0.273474 -0.95769 0.251991 0.508992 -0.0734603 -0.315069 -0.0484464 0.254575 -0.592485 0.395371 -0.0850694 0.114283 0.227779 -0.269022 -0.34156 -0.399192 0.288403 -0.634729 -0.653185 -0.204588 0.409916 -0.366701 0.103566 -0.595112 0.386003 -0.437491 -0.0339757 -0.679374 0.199236 0.203114 -0.437177 -0.416794 -0.205657 0.434272 0.614178 -0.352718 -0.0162519 -0.331156 0.784374 -0.172379 0.437791 -0.83331 0.570596 0.717606 -0.0808032 0.125975
1131189 0.0438136 -0.542753 0.486305 0.561769 0.116986 -0.165794 0.171611 -0.319339 0.073713 0.812785 -0.239449 -0.114591 0.0769221 -0.275694 -0.494678 -0.39245 -0.491628 -0.088308 -0.970279 -0.136506 0.051433 0.0751924 -0.26171 0.00384817 -0.0713899 0.246944 -0.449267 -0.333159 -0.718944 -0.0315096 0.277941 -0.502688 -0.439915 -0.0110798 -0.098271 -0.118664 -0.208502 -0.205361 0.31824 0.252843 -0.292495 -0.526045 0.0802818 -0.927646 0.444305 -0.22314 0.408395 -0.208765 0.422662 -0.184031 -0.119238 0.750555 0.514359 0.327546 -0.157788 -0.483915 -0.291918 -0.252003 -0.102055 -0.131203 0.537206 0.371895 0.139157 0.442125 -0.205149 -0.436913 0.0512214 0.267686 -0.354455 0.0587046 0.235046 0.200091 -0.320234 0.617299 0.510531 0.0590305 0.365347 0.395698 0.467588 -0.586592 0.0455002 0.0538935 0.321501 0.155084 -0.195434 0.381137 0.141469 0.0672578 -0.242664 -0.0752715 0.0428663 -0.396562 0.135041 0.166934 0.0876746 0.228252 0.243661 0.14081 0.0329425 -0.178174
1129907 -0.128637 -0.262327 0.642032 -0.246546 0.249129 -0.908938 0.247323 0.151866 0.568718 0.630938 0.468578 -0.278956 -0.264147 -0.183951 -0.625254 -0.257645 -0.649646 0.248144 -0.204232 0.232185 -0.377855 0.492975 -0.286421 -0.47578 -0.0211735 0.265538 -0.633319 -0.027829 -0.509369 0.0970841 -0.194742 -0.297732 -0.192201 0.484718 -0.581783 -0.158833 -0.139716 -0.925662 0.733525 -0.155827 0.610473 -0.278755 0.0665122 -0.376608 0.531217 0.234791 0.142001 0.418815 0.153605 0.0826001 0.306266 0.217817 0.0687834 0.501851 -0.138568 -0.45454 -0.334611 -0.19397 0.149601 -0.264239 0.332244 -0.0510369 0.12044 0.455315 0.182462 -0.190272 0.428772 -0.276067 0.0846624 -0.613935 0.490067 0.60827 -0.518134 0.0569825 0.351675 -0.517143 0.0196414 -0.384755 0.283493 -0.67943 -0.383598 -0.473671 0.218961 0.305394 -0.196528 -0.268766 0.197405 0.390249 0.978756 -0.114062 0.23998 0.0835976 0.299676 -0.108148 0.483585 -0.803887 -0.0252048 0.384601 -0.548024 0.35445
1131184 -0.220458 -0.191782 0.248178 -0.410229 0.0763013 -0.548331 -0.235888 -0.154313 0.531476 0.514436 0.31319 0.532352 -0.187452 -0.565918 -0.0979528 -0.257608 0.000595499 -0.0827939 -0.376138 0.0250237 -0.37865 -0.103882 -0.889851 0.280925 -0.0107026 -0.494822 -0.679839 0.717103 -0.952372 -0.170571 0.413729 0.0730397 -0.232328 0.2504 -0.248449 -0.436971 -0.995158 0.0335157 0.359427 0.461996 -0.105581 -0.750143 0.806361 -0.0424748 0.254315 -0.466575 0.991093 0.367188 -0.132712 -0.414339 0.244755 0.585406 0.167295 0.104665 -0.600572 0.286282 -0.10405 0.485668 -0.894069 0.470489 0.594076 0.652528 0.200656 0.955882 -0.734565 -0.651158 -0.304492 0.00620126 0.517521 -0.00395499 0.735478 0.488157 -0.300052 -0.161329 0.520617 0.0854834 -0.0885073 -0.566593 -0.0919646 -1.06384 -0.286455 -0.814161 0.217842 -0.146781 -0.332338 0.201605 0.363288 0.131848 0.643019 0.0471154 0.293177 -0.128049 0.058937 -0.708023 -0.53416 -0.115159 0.604778 -0.0254914 -0.510271 -0.268362
1130680 -0.239625 -0.432963 0.267839 0.226802 0.577382 -0.196238 -0.157993 -0.591454 -0.0748934 0.90456 0.362508 0.340611 0.712603 -0.24219 0.0354007 0.0978494 -0.529467 -0.298321 -0.540054 -0.492338 0.245313 0.10891 -0.139407 0.0187822 0.554542 0.0844471 -0.403852 0.298736 -1.44903 0.749251 0.383156 -0.376399 -0.328094 -0.0675559 -0.354018 0.0896818 -0.393087 -0.324987 1.07979 0.212911 -0.329459 -0.332417 -0.139674 -0.385533 0.10533 0.116699 0.872099 0.0713481 0.899377 0.0660166 -0.534479 0.425688 0.623672 0.0136204 0.120039 0.397755 -0.297947 0.686938 -0.547877 -0.216993 0.180451 0.0841872 0.520045 -0.134163 -0.427591 0.201443 0.033404 -0.307216 -0.788629 -0.553655 -0.156516 0.315772 -0.672722 0.430641 0.494597 0.35962 0.090889 -0.543883 0.387841 -0.242081 0.0159481 -1.02489 0.282032 0.213028 -0.0994143 0.3588 0.499257 -0.109175 0.278473 -0.100777 0.234689 0.0851811 0.11519 0.268549 -0.306934 -0.102938 0.972039 0.211042 -0.266244 -0.446043
1131180 -0.431691 -0.562297 0.498664 0.491825 0.109887 -0.216932 -0.0568112 -0.351111 0.159202 0.714642 0.174628 0.327222 -0.0903321 -0.180177 -0.503604 -0.650182 -0.484606 0.0595095 -1.10206 0.101159 -0.16634 -0.0555829 -0.386843 0.0645712 0.0756676 0.465484 -0.53901 0.0533468 -0.75172 0.132676 0.38583 -0.321411 -0.428847 0.0874029 -0.034925 -0.187713 -0.473445 -0.0369729 0.483948 0.47403 -0.0567206 -0.471724 0.104768 -0.590333 0.191546 -0.103799 0.378726 -0.0862149 0.341357 -0.293612 0.172419 0.914418 0.409171 -0.0819897 0.00259783 -0.483818 -0.171769 0.165986 -0.00830196 -0.0557704 0.292093 0.59343 -0.0980546 0.544072 -0.234914 -0.491187 0.269941 0.534446 -0.212061 -0.0957924 0.134916 0.218354 -0.140771 0.441137 0.504295 -0.204832 -0.0252639 0.237015 0.0529444 -0.534055 0.0754316 0.250921 0.378925 -0.0903032 0.0465084 0.563269 0.368611 -0.0391261 -0.14723 0.0424472 -0.135942 -0.261238 -0.0394882 0.275582 0.0584588 0.115308 0.202128 0.0499519 -0.103703 -0.110823
